tree
version=v4
num_class=1
num_tree_per_iteration=1
label_index=0
max_feature_idx=20
objective=lambdarank
feature_names=feat_gate feat_age feat_popularity feat_win_odds_log feat_last3f feat_jockey_weight feat_n_runners feat_running_style_enc feat_track_condition_enc feat_signal_total_adjust feat_cond_diff_age feat_cond_diff_gate feat_cond_diff_style feat_cond_diff_popularity feat_cond_diff_last3f feat_cond_diff_weight feat_cond_diff_jockey feat_cond_diff_track feat_recent_form feat_trend_index feat_consistency_index
feature_infos=[1:8] [2:12] [1:18] [0.095299999999999996:6.9077000000000002] [12.800000000000001:157.5] [48:65] [4:18] [0:2] none [-0.14999999999999999:0.10000000000000001] [-0.5:0.83330000000000004] [-0.5:0.75] [-0.59999999999999998:0.83330000000000004] [-0.59999999999999998:0.83330000000000004] none [-0.42859999999999998:0.83330000000000004] [-0.54549999999999998:0.83330000000000004] none [0:0.45000000000000001] [-1:1] [0:1]
tree_sizes=2341 2321 2297 2334 2325 2332 2333 2320 2326 2318 2319 2342 2323 2316 2327 2328 2330 2318 2334 2312 2304 2325 2324 2332 2320 2313 2319 2329 2323 2324 2321 2329 2322 2317 2337 2323 2324 2329 2360 2326 2319 2349 2320 2320 2317 2330 2311 2329 2336 2327 2322 2331 2368 2323 2359 2304 2375 2315 2327 2323 2366 2335 2329 2309 2335 2321 2313 2351 2319 2328 2326 2305 2360 2333 2333 2324 2330 2321 2364 2339 2368 2326 2312 2334 2319 2319 2304 2337 2351 2294 2300 2329 2344 2293 2314 2323 2343 2331 2306 2355 2368 2334 2322 2281 2296 2352 2336 2290 2325 2320 2374 2320 2300 2331 2302 2361 2328 2335 2289 2327 2330 2306 2316 2328 2307 2327 2331 2324 2328 2330 2331 2338 2325 2337 2321 2330 2330 2369 2327 2340 2338 2289 2330 2356 2326 2333 2323 2309 2330 2354 2333 2345 2329 2366 2317 2338 2310 2314 2323 2316 2334 2328 2342 2333 2334 2331 2311 2305 2339 2324 2318 2317 2327 2337 2343 2328 2350 2342 2338 2324 2322 2339 2325 2365 2336 2297 2299 2316 2326 2336 2337 2356 2344 2337 2337 2306 2347 2342 2310 2342

Tree=0
num_leaves=20
num_cat=0
split_feature=3 3 3 3 3 7 3 7 7 3 7 7 3 3 9 3 9 9 9
split_gain=28287.3 3657.69 2020.46 508.842 434.071 386.78 245.005 210.191 185.58 138.141 131.042 123.314 78.4235 71.7069 60.3295 59.8264 43.774 43.6302 37.7004
threshold=2.9729500000000004 1.8946000000000003 3.9541500000000003 1.3216500000000002 2.5055000000000001 1.0000000180025095e-35 4.7609000000000012 1.0000000180025095e-35 1.0000000180025095e-35 3.4797000000000007 1.0000000180025095e-35 1.0000000180025095e-35 3.4610500000000006 0.89590000000000003 0.0035950000000000005 1.6193000000000002 -0.036064999999999993 -0.018824999999999998 -0.0059949999999999995
decision_type=2 2 2 2 2 2 2 2 2 2 2 2 2 2 2 2 2 2 2
left_child=1 3 5 13 7 12 11 18 -6 -7 -5 -4 17 -1 -9 -12 -10 -2 -3
right_child=2 4 6 10 8 9 -8 14 16 -11 15 -13 -14 -15 -16 -17 -18 -19 -20
leaf_value=0.085658192632658586 -0.019986323603839895 0.021928599512814548 -0.051119679886646646 0.064221151072555854 0.018361536280719275 -0.036728481274882999 -0.091739069203262469 0.0091461637685700935 -0.019554075327577265 -0.058582757116334108 0.053720982633957082 -0.077054166779460559 -0.027623745090153452 0.072757971989611925 0.025977195342471938 0.037428353250170507 -0.0030367967033975356 0.0072862492243500211 0.045517332719608658
leaf_weight=1940.6960297609912 217.21278711897321 198.40870866039768 585.71994977712166 1698.8436028552242 834.11066321202088 1570.0502788423328 3298.7175505477935 1153.7100307410583 747.1825446333969 1340.4160078986315 1164.0904746679589 2107.7259189772885 508.74615166452713 2421.1194565627957 988.65577655297238 1091.9885017855559 866.07814807014074 451.40824555268046 1157.9538565183757
leaf_count=11916 3423 2527 10195 15234 11238 30974 66106 18498 13858 28209 12719 44490 8431 19688 14113 14034 14676 6515 12712
internal_value=-6.9352e-11 0.0453114 -0.064114 0.066721 0.0153659 -0.0370114 -0.0826032 0.0266646 -0.000786564 -0.0467935 0.0537328 -0.0714144 -0.0128301 0.0784976 0.0169133 0.045835 -0.0106868 -0.0015737 0.0420668
internal_weight=24342.8 14262.8 10080 8316.74 5946.1 4087.83 5992.16 3498.73 2447.37 2910.47 3954.92 2693.45 1177.37 4361.82 2142.37 2256.08 1613.26 668.621 1356.36
internal_count=359556 161213 198343 73591 87622 77552 120791 47850 39772 59183 41987 54685 18369 31604 32611 26753 28534 9938 15239
is_linear=0
shrinkage=0.05


Tree=1
num_leaves=20
num_cat=0
split_feature=2 4 2 2 4 7 4 7 7 7 6 4 2 6 2 6 4 4 4
split_gain=32768.2 6559.18 4672.09 3750.67 2095.16 1349.73 1268.8 1192.5 740.96 710.948 509.408 494.489 449.436 376.496 365.708 339.442 282.064 220.138 217.239
threshold=4.5000000000000009 38.850000000000001 8.5000000000000018 1.5000000000000002 39.250000000000007 1.0000000180025095e-35 40.650000000000013 1.0000000180025095e-35 1.0000000180025095e-35 1.0000000180025095e-35 11.500000000000002 38.95000000000001 1.5000000000000002 12.500000000000002 2.5000000000000004 12.500000000000002 38.250000000000007 39.750000000000007 37.45000000000001
decision_type=2 2 2 2 2 2 2 2 2 2 2 2 2 2 2 2 2 2 2
left_child=1 3 4 9 5 10 12 13 11 -1 -2 -4 -3 -5 -9 -7 -10 -14 -17
right_child=2 6 8 7 -6 15 -8 14 16 -11 -12 -13 17 -15 -16 18 -18 -19 -20
leaf_value=0.058936723096369548 -0.024343144498751745 0.0036249338152937131 -0.029032823415358528 0.019045034949786835 -0.074276223378292816 -0.045888254214787129 -0.083896923353462202 0.017442321433741366 -0.067136558325862183 0.03928491276701529 0.011322608025192644 -0.079194995928962675 -0.020687840909342628 0.038119444966525973 0.0010655172930657279 -0.018301797104803834 -0.085610026267144326 -0.052337637723666924 -0.039080154856038267
leaf_weight=8402.7626518942416 1363.781030068174 1545.4659827686846 1836.7121370891109 4214.5404557995498 1918.0458072535694 2534.824282631278 877.78651778399944 6319.0385298915207 6516.9911895431578 10175.507498636842 3765.2514814380556 670.7005699723959 1772.2351185977459 6699.1449808850884 7402.131219798699 4451.617822105065 3025.5885097999126 796.24664025194943 1753.3997564837337
leaf_count=9544 6771 2471 16812 9053 15844 18839 3316 14132 84910 13599 16100 7937 6007 13704 29494 31726 42004 3092 14201
internal_value=3.29548e-10 0.0249422 -0.0431921 0.0312108 -0.025296 -0.0185221 -0.0293242 0.0184186 -0.0666382 0.0481732 0.00183928 -0.0424506 -0.0176801 0.0307535 0.00860756 -0.0304713 -0.0729938 -0.0304995 -0.0241733
internal_weight=76041.8 48204.9 27836.9 43213.1 15786.9 13868.9 4991.73 24634.9 12050 18578.3 5129.03 2507.41 4113.95 10913.7 13721.2 8739.84 9542.58 2568.48 6205.02
internal_count=359556 104412 255144 89526 103481 87637 14886 66383 151663 23143 22871 24749 11570 22757 43626 64766 126914 9099 45927
is_linear=0
shrinkage=0.05


Tree=2
num_leaves=20
num_cat=0
split_feature=3 3 3 4 4 3 4 3 3 12 4 12 4 6 12 4 4 12 3
split_gain=30996.6 5401.81 3253.4 2405.17 1562.4 995.791 917.269 854.808 414.239 403.21 395.134 283.898 277.474 266.676 282.175 262.23 252.306 247.951 193.861
threshold=2.6137500000000005 1.3480000000000001 3.6149500000000003 39.350000000000001 38.850000000000001 0.89590000000000003 39.250000000000007 2.0082000000000004 4.6274000000000006 0.060150000000000002 38.250000000000007 0.028750000000000001 40.650000000000013 12.500000000000002 -0.02385 40.95000000000001 39.050000000000004 0.049450000000000008 0.55920000000000003
decision_type=2 2 2 2 2 2 2 2 2 2 2 2 2 2 2 2 2 2 2
left_child=1 4 6 7 5 18 9 10 16 -2 13 -7 -5 -3 -15 -6 -4 -9 -1
right_child=2 3 8 12 15 11 -8 17 -10 -11 -12 -13 -14 14 -16 -17 -18 -19 -20
leaf_value=0.070934004518950419 -0.03230119146982844 0.011082508562383549 -0.05513268504536311 -0.036103703595191335 0.00068942926617354596 0.027960854307642797 -0.070556902888313275 -0.0081266036158803394 -0.080095846278891672 -0.0099849630676257604 -0.0024276601804582802 0.043891100125547193 -0.08001099871066196 0.01354899074116 0.032115008639579314 -0.074191100299941609 -0.080959699351415851 0.0088851018174621946 0.05411513125515597
leaf_weight=2559.9592114910483 5908.2733526006341 4108.6349843814969 4589.9941521463916 1292.0496725030243 1502.9026288688183 5301.3352233171463 1238.392138466239 4977.5971414372325 5010.5930809071288 3078.8631415534765 1932.2736869119108 5919.8398664072156 498.70896921679378 2975.0204142257571 6557.546964623034 126.78197982534766 1190.9949534861371 3759.907895790413 5180.4891525655985
leaf_count=3284 51795 11833 56673 6823 3307 9162 12468 27341 74361 18645 6131 9597 3638 10434 16374 524 15284 14450 7432
internal_value=5.66934e-11 0.0226966 -0.0504243 0.00759158 0.0418438 0.0458816 -0.0302149 0.0117109 -0.0695736 -0.024656 0.0187336 0.036365 -0.0483315 0.0217311 0.0263207 -0.00513593 -0.0604535 -0.000806156 0.0596776
internal_weight=67710.2 46693 21017.1 26101.7 20591.3 18961.6 10225.5 24311 10791.6 8987.14 15573.5 11221.2 1790.76 13641.2 9532.57 1629.68 5780.99 8737.51 7740.45
internal_count=359556 130330 229226 97024 33306 29475 82908 86563 146318 70440 44772 18759 10461 38641 26808 3831 71957 41791 10716
is_linear=0
shrinkage=0.05


Tree=3
num_leaves=20
num_cat=0
split_feature=3 3 3 4 7 4 4 3 7 3 4 7 2 7 7 3 6 4 6
split_gain=24606.1 4405.96 2503.78 2452.07 1144.69 895.534 752.278 667.424 656.874 568.775 552.894 384.218 368.882 265.495 239.341 179.679 174.744 173.912 156.012
threshold=2.6706500000000006 1.1473000000000002 3.7784500000000003 38.650000000000013 1.0000000180025095e-35 38.850000000000001 39.250000000000007 1.7664500000000001 1.0000000180025095e-35 0.7652000000000001 40.350000000000001 1.0000000180025095e-35 2.5000000000000004 1.0000000180025095e-35 1.0000000180025095e-35 3.1157000000000008 10.500000000000002 39.350000000000001 12.500000000000002
decision_type=2 2 2 2 2 2 2 2 2 2 2 2 2 2 2 2 2 2 2
left_child=1 5 6 4 12 9 8 -6 16 -1 14 -11 -3 17 -5 -10 -2 -4 -9
right_child=2 3 13 10 7 -7 -8 18 15 11 -12 -13 -14 -15 -16 -17 -18 -19 -20
leaf_value=0.061435970698454648 -0.035585571729996261 0.038216572665940994 -0.040769645421551481 -0.0036490864342157829 0.016191259174943014 -0.00023077586292827163 -0.067635680652963936 -0.017230516737659803 -0.026232771187574635 0.052360695738394615 -0.067594325693340548 0.029620150419428493 0.0199198243905984 -0.072069396941138744 -0.031172612592495503 -0.044137889110418445 -0.001017472843849881 -0.077927683380348778 -0.0004238236460760576
leaf_weight=4776.1722416654229 430.1532736569643 4513.2762308530509 1267.9064031671733 1464.6978845559061 8071.9407744072378 1047.3974553048611 1222.7219701055437 1839.7105697989464 2671.8089480921626 3260.2142192050815 699.40946473181248 4316.9322055093944 7069.9835364110768 7086.4192773886025 1714.3395163509995 2946.1813016198575 2435.675960233435 418.9396739974618 5535.5959239434451
leaf_count=7480 2777 8834 15076 5800 22090 2426 13969 10005 24079 5183 5379 7168 20956 112783 8885 34343 15315 6008 31000
internal_value=3.90186e-11 0.0202138 -0.0484672 0.0098322 0.0151667 0.044159 -0.0309701 0.00625675 -0.0256857 0.0479227 -0.0273463 0.0394047 0.0270489 -0.0678257 -0.0184915 -0.0356226 -0.00620605 -0.0499981 -0.00461612
internal_weight=62789.5 44309.7 18479.8 30909 27030.5 13400.7 9706.54 15447.2 8483.82 12353.3 3878.45 7577.15 11583.3 8773.27 3179.04 5617.99 2865.83 1686.85 7375.31
internal_count=359556 135206 224350 112949 92885 22257 90483 63095 76514 19831 20064 12351 29790 133867 14685 58422 18092 21084 41005
is_linear=0
shrinkage=0.05


Tree=4
num_leaves=20
num_cat=0
split_feature=2 2 9 4 4 4 9 12 2 2 4 9 4 4 9 12 2 9 4
split_gain=18598.6 3488.87 1806.97 1627.31 1154.2 919.746 564.386 525.404 416.712 404.04 361.324 312.46 255.997 230.325 195.767 165.966 145.428 131.555 129.863
threshold=5.5000000000000009 2.5000000000000004 -0.069074999999999984 38.45000000000001 38.750000000000007 39.150000000000013 0.055385000000000011 -0.021449999999999993 1.5000000000000002 10.500000000000002 39.850000000000001 0.0090950000000000024 40.45000000000001 39.350000000000001 0.098305000000000017 0.084450000000000011 8.5000000000000018 -0.046894999999999992 34.850000000000001
decision_type=2 2 2 2 2 2 2 2 2 2 2 2 2 2 2 2 2 2 2
left_child=1 3 9 7 6 11 17 -1 14 13 15 16 -6 -2 18 -5 -4 -3 -9
right_child=2 4 5 10 12 -7 -8 8 -10 -11 -12 -13 -14 -15 -16 -17 -18 -19 -20
leaf_value=0.022895883776246836 -0.042636722912506489 -0.012994108357998309 -0.020938904630965524 -0.0073091452257651388 -0.024721180400731922 -0.063836752655742096 0.01741335606133074 0.052926029635532251 0.030309656400108766 -0.068240981253022845 -0.037986032381230841 -0.0080675324373402184 -0.068769898684204397 -0.074007731945431018 0.057212383838117067 0.019577869375914093 -0.039753286885163587 0.0013441228911932174 0.037136328173232001
leaf_weight=5859.6361926235259 3964.8281926000491 2165.5957690216601 2600.6083170417696 1253.8037932701409 1739.2022423092276 1373.5808618627489 6343.6561532039195 1869.1710435599089 6091.0833346582949 4534.1797749875113 619.9590683914721 3390.0276432437822 407.03892341256142 686.38030721526593 3172.7351521290839 1058.4966406188905 1697.4982096813619 6122.7571713905782 4293.0191977098584
leaf_count=13364 47925 12915 22389 3670 10139 17480 22653 2935 14253 80949 2715 25909 3835 9271 5036 2571 25133 28748 7666
internal_value=3.51775e-11 0.0186903 -0.0419919 0.0308311 0.00116621 -0.0261506 0.00618877 0.0356416 0.0404831 -0.0576199 -0.00408931 -0.0194175 -0.0330751 -0.0472662 0.0471214 0.00499886 -0.0283695 -0.0024022 0.0419258
internal_weight=59243.3 40996.2 18247.1 24217.9 16778.3 9061.72 14632 21285.6 15426 9185.39 2932.26 7688.13 2146.24 4651.21 9334.93 2312.3 4298.11 8288.35 6162.19
internal_count=359556 130500 229056 52210 78290 90911 64316 43254 29890 138145 8956 73431 13974 57196 15637 6241 47522 41663 10601
is_linear=0
shrinkage=0.05


Tree=5
num_leaves=20
num_cat=0
split_feature=3 3 3 7 3 3 7 7 3 3 3 7 9 3 9 3 3 9 7
split_gain=17868.4 3162.19 1943.33 1112.29 572.186 551.646 537.271 333.686 327.612 230.43 147.221 138.041 117.761 93.6603 92.598 87.3128 59.894 58.6541 57.9057
threshold=2.6706500000000006 1.1785500000000002 3.7784500000000003 1.0000000180025095e-35 1.9810000000000001 0.7652000000000001 1.0000000180025095e-35 1.0000000180025095e-35 1.8000500000000004 4.8215000000000012 3.1843000000000004 1.0000000180025095e-35 0.048455000000000005 3.1333000000000006 0.064065000000000025 0.55920000000000003 2.1575500000000005 0.098305000000000017 1.5000000000000002
decision_type=2 2 2 2 2 2 2 2 2 2 2 2 2 2 2 2 2 2 2
left_child=1 5 6 8 12 15 13 -7 17 11 -8 -4 18 -2 -9 -1 -10 -3 -5
right_child=2 3 9 4 -6 7 10 14 16 -11 -12 -13 -14 -15 -16 -17 -18 -19 -20
leaf_value=0.060669044367981775 -0.0023612183075423653 0.022666556400878345 -0.038754584898341153 0.0080312807790391284 -0.013138723281115223 0.042720940757672632 -0.029207631791185143 0.017678436619159642 0.016272156716707342 -0.072091515351196553 -0.045388573433761389 -0.05960434083877756 0.013480406758340941 -0.020119842342079253 0.033807655452311111 0.046653650989193572 0.0057095979691703831 0.032363769269850136 -0.0017599296191302691
leaf_weight=2031.9018347896636 1612.7021100632846 2834.9714706428349 1040.4136117119342 2678.7060149088502 5485.8820162005723 3469.7138180583715 3015.0458627743647 3265.1279656272382 2793.7208998389542 3339.112950139679 2633.646741386503 3350.0635723723099 4068.5016338676214 1375.9231560407206 1223.2076081484556 2452.5040292590857 2582.9414991773665 3465.5582476705313 3461.1797667983919
leaf_count=3617 10744 7339 13578 9406 37665 6643 31778 6438 9736 62485 35829 57804 13763 12132 2395 4675 12045 8423 13061
internal_value=-3.50012e-11 0.0180794 -0.0439797 0.00857881 -0.000115356 0.0389792 -0.0276812 0.0310762 0.0202639 -0.0621923 -0.0367518 -0.0546636 0.00688327 -0.0105371 0.0220741 0.0530041 0.0111979 0.0280004 0.00251177
internal_weight=56180.8 39813.9 16366.9 27371.5 15694.3 12442.5 8637.32 7958.05 11677.2 7729.59 5648.69 4390.48 10208.4 2988.63 4488.34 4484.41 5376.66 6300.53 6139.89
internal_count=359556 135206 224350 111438 73895 23768 90483 15476 37543 133867 67607 71382 36230 22876 8833 8292 21781 15762 22467
is_linear=0
shrinkage=0.05


Tree=6
num_leaves=20
num_cat=0
split_feature=3 4 3 3 7 4 4 7 7 3 3 7 3 4 7 3 4 4 3
split_gain=15065.9 2824.22 2210.5 1966.64 764.777 711.961 619.335 533.374 374.487 285.652 284.86 278.821 251.869 176.574 169.729 168.979 149.287 145.947 119.866
threshold=2.5055000000000001 38.350000000000001 3.5986500000000006 1.1473000000000002 1.0000000180025095e-35 39.850000000000001 39.550000000000004 1.0000000180025095e-35 1.0000000180025095e-35 4.6087000000000016 1.6770500000000002 1.0000000180025095e-35 0.7652000000000001 39.050000000000004 1.0000000180025095e-35 1.6770500000000002 41.350000000000001 34.95000000000001 3.1157000000000008
decision_type=2 2 2 2 2 2 2 2 2 2 2 2 2 2 2 2 2 2 2
left_child=1 3 6 8 15 11 7 17 -1 13 -6 -3 -10 14 -4 -5 -7 -2 -9
right_child=2 5 9 4 10 16 -8 18 12 -11 -12 -13 -14 -15 -16 -17 -18 -19 -20
leaf_value=0.053584513173819216 0.020764766772716634 0.0071623311039038483 -0.024468941851739853 0.033445772140400259 0.015063455796809426 -0.039773866924546375 -0.06252708133561663 -0.021407415067737537 0.048971857701470105 -0.067734773363802431 -0.00018704915371000138 -0.017745383988597135 0.026043271629066708 -0.068383870144571715 -0.05012945096935937 0.019803544930525916 -0.083994629980719979 -0.0063502175959244851 -0.037091047916723012
leaf_weight=4353.2126772105694 629.2976105697453 2268.3414093200117 860.43623211607337 4480.777676217258 6083.1985431350768 956.59244614839554 843.17858071997762 3361.2060133107007 1813.3663483038545 3752.9160228278488 6165.2848118394613 2226.3078346522525 3527.9643100015819 917.49718002602458 2566.7434492791072 4600.2914766203612 238.42767365276814 2347.5870485324413 1910.8448141636327
leaf_count=8126 3606 7162 10364 9927 17502 5651 10888 33798 3647 75566 35050 10055 6743 15280 46382 15400 2178 16100 26131
internal_value=-9.65684e-12 0.0180875 -0.0386313 0.0240263 0.0155393 -0.014295 -0.0217102 -0.0175381 0.0426991 -0.0576305 0.0073871 -0.00517506 0.0338275 -0.0489025 -0.0436871 0.0265349 -0.0485967 -0.000618254 -0.0270919
internal_weight=53903.5 36713.8 17189.7 31024.1 21329.6 5689.67 9092.11 8248.94 9694.54 8097.59 12248.5 4494.65 5341.33 4344.68 3427.18 9081.07 1195.02 2976.88 5272.05
internal_count=359556 121441 238115 96395 77879 25046 90523 79635 18516 147592 52552 17217 10390 72026 56746 25327 7829 19706 59929
is_linear=0
shrinkage=0.05


Tree=7
num_leaves=20
num_cat=0
split_feature=3 4 3 3 7 4 4 7 3 7 3 7 3 3 4 4 1 4 7
split_gain=12958.5 2831.79 2104.69 1299.96 752.96 610.237 437.204 420.188 392.935 371.6 265.329 220.167 191.551 164.687 154.96 142.606 130.485 129.145 130.649
threshold=2.7694500000000004 38.45000000000001 1.2088500000000002 3.7784500000000003 1.0000000180025095e-35 39.850000000000001 39.250000000000007 1.0000000180025095e-35 2.0082000000000004 1.0000000180025095e-35 0.7652000000000001 1.0000000180025095e-35 4.6835500000000012 1.6955500000000001 34.550000000000004 41.350000000000001 3.5000000000000004 39.250000000000007 1.0000000180025095e-35
decision_type=2 2 2 2 2 2 2 2 2 2 2 2 2 2 2 2 2 2 2
left_child=1 2 7 6 13 11 9 -1 14 -2 -9 16 17 -4 -6 -7 -3 18 -5
right_child=3 5 4 12 8 15 -8 10 -10 -11 -12 -13 -14 -15 -16 -17 -18 -19 -20
leaf_value=0.050363170988322138 -0.0048394430599174396 0.0089265987116781079 0.029886155687328549 -0.025210579343022128 0.022011309423616066 -0.039872431108903095 -0.059378327870362846 0.046601572302278689 -0.0079717347710890878 -0.030809834610671723 0.023211783416056394 -0.020276323821054258 -0.065966287378966912 0.016663982854686666 0.0063634714105916604 -0.081559665842202089 -0.020736837539068742 -0.06860961144146617 -0.050473719822278142
leaf_weight=4608.1605312414467 2117.7255815472454 1676.3246278716251 4208.554433433339 675.09979210328311 2130.9801995176822 1034.4267340581864 883.67063980177045 1723.5301349237561 4494.6120249843225 3940.0653333906084 4089.0346116945148 2142.0335351331159 3291.2057692734525 5347.190106343478 6143.267947614193 255.90002897754312 475.99855067580938 683.65147849731147 2115.2526496136561
leaf_count=9204 16088 5426 9604 8947 7504 6989 12753 3696 33972 53012 8325 11225 70882 19946 23181 2759 2005 12216 41822
internal_value=-3.6673e-11 0.0149207 0.0205332 -0.041725 0.0118726 -0.0179877 -0.0265236 0.039087 0.00392896 -0.0217309 0.0301473 -0.00892785 -0.0573224 0.0224873 0.0103935 -0.0481399 0.00236636 -0.0491333 -0.0443615
internal_weight=52036.7 38330 32745.3 13706.7 22324.6 5584.68 6941.46 10420.7 12768.9 6057.79 5812.56 4294.36 6765.21 9555.74 8274.25 1290.33 2152.32 3474 2790.35
internal_count=359556 143836 115432 215720 94207 28404 81853 21225 64657 69100 12021 18656 133867 29550 30685 9748 7431 62985 50769
is_linear=0
shrinkage=0.05


Tree=8
num_leaves=20
num_cat=0
split_feature=2 4 2 2 4 4 7 7 7 4 7 2 4 7 4 6 7 6 7
split_gain=10124.4 2521.23 1423.72 1187.19 649.134 612.606 602.205 519.743 359.091 264.09 284.915 251.22 206.785 199.276 181.174 170.917 110.737 105.945 102.064
threshold=5.5000000000000009 38.150000000000013 2.5000000000000004 9.5000000000000018 39.45000000000001 39.45000000000001 1.0000000180025095e-35 1.0000000180025095e-35 1.0000000180025095e-35 39.150000000000013 1.0000000180025095e-35 1.5000000000000002 34.550000000000004 1.0000000180025095e-35 40.95000000000001 10.500000000000002 1.5000000000000002 10.500000000000002 1.5000000000000002
decision_type=2 2 2 2 2 2 2 2 2 2 2 2 2 2 2 2 2 2 2
left_child=1 2 6 5 13 7 11 15 17 10 -5 -1 -8 -3 -6 -2 -14 -4 -10
right_child=3 4 8 9 14 -7 12 -9 18 -11 -12 -13 16 -15 -16 -17 -18 -19 -20
leaf_value=0.049326602025477513 -0.031406371125921206 0.0067979546472677795 0.0035958036777784899 -0.020579900659242409 -0.03070759173360604 -0.059911542667239429 0.033187942204776159 -0.027981429574964991 0.0055164083919251455 -0.070217824805737544 -0.051982430347599064 0.030548303352323961 0.022387244681691603 -0.013538828457850691 -0.070965487340021421 0.0037188145467397628 0.0094432637660721349 0.020933008437134217 -0.0070944509943759535
leaf_weight=4050.384149953723 403.34909319411963 2405.7638772102073 1123.219328738749 899.32732352986932 1542.04085738305 995.56352947186679 2955.2193073928356 5010.2861666670069 3386.105821441859 1461.7776058409363 3669.7426784411073 3178.9538048245013 4296.010863289237 2412.502459875308 341.32819592021406 2449.8416713038459 2685.0739731416106 4089.0612833127379 3049.284564383328
leaf_count=8406 3892 7674 4595 13557 8804 14867 6995 66507 19544 29026 84408 7400 10779 11483 3556 16799 7480 13472 20312
internal_value=2.75038e-12 0.0145097 0.0209346 -0.0346081 -0.0131137 -0.0229594 0.0300899 -0.018281 0.00744195 -0.0517196 -0.0458015 0.0410692 0.0221017 -0.00338466 -0.0380036 -0.00124675 0.0174087 0.0171969 -0.000459002
internal_weight=50404.8 35514.9 28813.3 14889.9 6701.64 8859.04 17165.6 7863.48 11647.7 6030.85 4569.07 7229.34 9936.3 4818.27 1883.37 2853.19 6981.08 5212.28 6435.39
internal_count=359556 130500 98983 229056 31517 102065 41060 87198 57923 126991 97965 15806 25254 19157 12360 20691 18259 18067 39856
is_linear=0
shrinkage=0.05


Tree=9
num_leaves=20
num_cat=0
split_feature=3 4 3 3 4 7 4 7 7 3 3 12 4 4 4 3 9 3 3
split_gain=10137.4 2477.15 1588.03 1101.82 593.049 493.657 458.664 414.26 385.685 237.418 225.394 192.166 150.928 145.89 131.537 131.27 128.688 120.703 109.069
threshold=2.7694500000000004 38.150000000000013 1.3480000000000001 4.159650000000001 39.550000000000004 1.0000000180025095e-35 39.250000000000007 1.0000000180025095e-35 1.0000000180025095e-35 0.66750000000000009 2.0856500000000007 0.12425000000000001 41.350000000000001 35.250000000000007 37.45000000000001 1.26685 0.098305000000000017 0.85420000000000007 3.2865500000000005
decision_type=2 2 2 2 2 2 2 2 2 2 2 2 2 2 2 2 2 2 2
left_child=1 2 7 6 11 13 8 17 -2 -9 -7 15 -6 -4 -11 -3 -15 -1 -10
right_child=3 4 5 -5 12 10 -8 9 18 14 -12 -13 -14 16 -16 -17 -18 -19 -20
leaf_value=0.054928071576096818 -0.0061738773516448967 0.0033105702900640822 0.029788521912594901 -0.057877833639579129 -0.033265616327775402 0.0084329191761331364 -0.057377057538011103 0.047126880835821616 -0.022858653077608173 0.024458922627554235 -0.007382977926199236 0.0086110812618091122 -0.077282455895335694 0.0080082884233107325 -5.6238525093344896e-05 -0.01797534808839053 0.024142727315860313 0.038902457209035783 -0.038417270020801413
leaf_weight=1877.7766606509686 2371.5396814504638 1021.2559554278851 2501.6072779614478 4656.7802407331765 1474.9200138831511 6501.5479370746762 1092.2980202632025 1106.262237995863 2133.8109870981425 5047.8271414600313 3446.9571778215468 1720.3316985927522 224.37431041616946 2846.3876721560955 613.68725277483463 2490.9678102135658 2184.2174612991512 3139.3504442684352 2385.9173716953956
leaf_count=4086 20481 2643 8303 105739 9676 28597 17855 2479 27743 11440 28823 5615 2759 10560 1532 13868 6460 6995 43902
internal_value=-4.43298e-12 0.0134616 0.0198274 -0.0385492 -0.0134142 0.0102642 -0.0272749 0.0340126 -0.0225036 0.0259413 0.00295303 -0.00507996 -0.0390776 0.0199207 0.0218016 -0.011786 0.0150136 0.0449004 -0.0310719
internal_weight=48837.8 36197.5 29265.6 12640.3 6931.85 17480.7 7983.57 11784.9 6891.27 6767.78 9948.51 5232.56 1699.29 7532.21 5661.51 3512.22 5030.61 5017.13 4519.73
internal_count=359556 143836 109275 215720 34561 82743 109981 26532 92126 15451 57420 22126 12435 25323 12972 16511 17020 11081 71645
is_linear=0
shrinkage=0.05


Tree=10
num_leaves=20
num_cat=0
split_feature=3 4 3 3 7 4 7 4 3 9 7 7 4 3 4 3 6 6 1
split_gain=8939.39 2477.69 1631.1 649.602 572.981 494.735 397.564 304.079 239.307 238.749 237.432 225.42 196.672 172.159 168.38 122.611 117.849 135.047 108.412
threshold=3.0228500000000005 38.350000000000001 1.3480000000000001 4.159650000000001 1.5000000000000002 40.150000000000013 1.0000000180025095e-35 38.45000000000001 0.66750000000000009 0.098305000000000017 1.5000000000000002 1.0000000180025095e-35 35.350000000000001 2.2027500000000004 37.550000000000004 0.89590000000000003 12.500000000000002 16.500000000000004 3.5000000000000004
decision_type=2 2 2 2 2 2 2 2 2 2 2 2 2 2 2 2 2 2 2
left_child=1 2 6 7 9 11 15 10 -8 12 -2 18 -4 -6 -10 -1 -14 -18 -3
right_child=3 5 4 -5 13 -7 8 -9 14 -11 -12 -13 16 -15 -16 -17 17 -19 -20
leaf_value=0.051941209535489356 -0.013604219181313666 0.0041936650351994667 0.018548826771969177 -0.056134035452898481 0.0011156632708020963 -0.050864913133351203 0.045415177950059137 -0.050085834658221987 0.022921146059067712 0.02231503632443653 -0.037696734375968426 -0.02195614955828034 -0.0086840418672423144 -0.017415233957199145 -0.0034767953770114927 0.035953263752406275 0.010255691219467664 -0.019478838830186845 -0.020267808632771923
leaf_weight=2015.1156062483788 2439.2211025017314 2040.6968265948817 3240.4407175630331 4417.4015236226842 3348.0024149520323 947.22460139077157 1079.9935032054782 1476.2202780894004 5033.0206846110523 4896.8118513561785 1760.84068010794 2627.6059197606519 1537.26915169321 2003.3266909858212 686.46485665440559 2961.6188750565052 3974.4877647608519 422.4461521524936 582.16745155490935
leaf_count=4657 31120 7407 16179 105739 17025 9262 2561 23498 11648 17280 33745 16189 8655 21194 1753 6849 19346 2549 2900
internal_value=-6.83642e-12 0.0112701 0.0170063 -0.0417554 0.00810432 -0.0176056 0.0316886 -0.0305657 0.0238289 0.0134003 -0.0237048 -0.0116053 0.00864219 -0.00582157 0.0197528 0.0424269 0.00323256 0.00739887 -0.00123577
internal_weight=47490.4 37396.7 31199 10093.7 19422.8 6197.69 11776.2 5676.28 6799.48 14071.5 4200.06 5250.47 9174.64 5351.33 5719.49 4976.73 5934.2 4396.93 2622.86
internal_count=359556 165454 129696 194102 102228 35758 27468 88363 15962 64009 64865 26496 46729 38219 13401 11506 30550 21895 10307
is_linear=0
shrinkage=0.05


Tree=11
num_leaves=20
num_cat=0
split_feature=3 3 3 9 3 7 3 3 3 7 7 7 7 7 9 3 9 7 3
split_gain=7918.42 1515.24 952.878 617.286 278.463 264.773 258.779 172.063 161.094 131.736 121.684 104.295 90.7023 76.2411 61.4069 60.3078 40.1856 39.9522 35.911
threshold=2.7694500000000004 1.1150000000000002 3.7784500000000003 0.055385000000000011 2.0082000000000004 1.0000000180025095e-35 0.66750000000000009 1.8640500000000002 4.8215000000000012 1.0000000180025095e-35 1.5000000000000002 1.0000000180025095e-35 1.0000000180025095e-35 1.0000000180025095e-35 -0.011764999999999998 3.2677000000000005 -0.018824999999999998 1.0000000180025095e-35 0.43775000000000003
decision_type=2 2 2 2 2 2 2 2 2 2 2 2 2 2 2 2 2 2 2
left_child=1 6 5 4 10 16 18 13 12 -8 -3 -6 -4 -5 -11 -7 -2 -9 -1
right_child=2 3 8 7 11 15 9 17 -10 14 -12 -13 -14 -15 -16 -17 -18 -19 -20
leaf_value=0.0530025461503143 -0.018555998857499041 0.0094567709844891514 -0.02877183472656222 0.022827986932984129 0.00062894178945118221 -0.02435729431516892 0.033358224453729685 0.0096208668418334593 -0.060532071029702143 0.0081318680944916979 -0.0027468191739378521 -0.014191491830785672 -0.04814210593036411 0.012729251088356895 0.022659823585347329 -0.036927049803140662 -0.0037664117394194591 -0.00083449427552720443 0.039905016275714522
leaf_weight=765.48163000121713 651.51274862140417 5161.2402073573321 804.85071611125022 4648.2218040386215 1702.886539304629 2198.8599451063201 2591.8016128651798 2712.0269871130586 2345.3452778849751 1012.1158092804253 3380.6348215825856 3919.0282067945227 2425.9491923884489 3125.7159852143377 2585.2452561724931 1685.8615364064462 1556.8425066238269 1377.9317497052252 1654.497429959476
leaf_count=1831 7138 18683 13578 12844 9099 30692 6411 11814 62485 2481 14778 35002 57804 11442 5861 30754 13269 9437 4153
internal_value=2.37351e-11 0.0120011 -0.035622 0.00598657 -0.00106067 -0.0219537 0.0301847 0.0144 -0.0505575 0.0247642 0.00462693 -0.00970236 -0.0433166 0.0187675 0.0185724 -0.0298122 -0.00812966 0.00609839 0.044048
internal_weight=46306 34636.8 11669.2 26027.7 14163.8 6093.08 8609.14 11863.9 5576.15 6189.16 8541.88 5621.91 3230.8 7773.94 3597.36 3884.72 2208.36 4089.96 2419.98
internal_count=359556 143836 215720 123099 77562 81853 20737 45537 133867 14753 33461 44101 71382 24286 8342 61446 20407 21251 5984
is_linear=0
shrinkage=0.05


Tree=12
num_leaves=20
num_cat=0
split_feature=3 3 3 3 9 9 12 3 9 9 3 3 3 3 12 6 3 10 3
split_gain=7008.5 1652.3 562.519 549.772 344.704 204.856 146.225 116.356 107.283 74.7667 70.4786 68.3539 59.6961 48.8682 47.0164 43.9391 43.3661 43.158 41.875
threshold=3.0228500000000005 1.6770500000000002 4.159650000000001 0.89590000000000003 -0.0059949999999999995 0.067935000000000009 0.022750000000000003 0.55920000000000003 0.077415000000000025 -0.046894999999999992 4.9384500000000005 2.2460000000000004 1.26685 1.1150000000000002 -0.0050499999999999998 10.500000000000002 3.4610500000000006 -0.0093499999999999989 2.4638500000000003
decision_type=2 2 2 2 2 2 2 2 2 2 2 2 2 2 2 2 2 2 2
left_child=1 3 6 7 11 9 16 -1 18 17 -4 -3 -7 -11 -9 -10 -2 -5 -6
right_child=2 4 10 5 8 12 -8 14 15 13 -12 -13 -14 -15 -16 -17 -18 -19 -20
leaf_value=0.046655172576033702 -0.028850181569554337 -0.0058733682561116773 -0.046549985786540571 0.0093747003588151769 0.0014027802954761567 0.027149801551031933 -0.018522997547198668 0.020271331781415783 -0.0037737269833447089 0.018876545134265461 -0.059895387053562205 -0.017371856910573934 0.017603900186670907 0.0092460227898607736 0.033300035392899482 0.010479758853175473 -0.04087969186256396 -0.0085751336325390823 -0.0077954477953891517
leaf_weight=1399.1583672575653 1384.4734369078651 2288.2127202954143 2013.6462751869112 579.63907132856548 4250.3764776708558 2710.7003991175443 2252.1174112558365 979.56199774518609 618.44173632003367 1794.0037069637328 1944.8054291401058 2970.1103432076052 4137.7179332077503 4956.6951471194625 2362.44969185628 4300.6988130863756 1632.731483600568 793.02563520893455 1745.4546216521412
leaf_count=3617 22473 14518 50316 1804 23440 6795 30808 2419 3384 4357 55423 31225 12670 16147 5880 20707 35082 2685 15806
internal_value=-2.64137e-11 0.00999335 -0.0388635 0.0197113 -0.00185143 0.0150124 -0.0281637 0.0345494 0.00321505 0.00964231 -0.0531066 -0.0123682 0.0213823 0.0118053 0.0294813 0.00868779 -0.0353598 -0.000995406 -0.00127493
internal_weight=45114 35886.2 9227.77 19713 16173.3 14971.8 5269.32 4741.17 10915 8123.36 3958.45 5258.32 6848.42 6750.7 3342.01 4919.14 3017.2 1372.66 5995.83
internal_count=359556 165454 194102 56374 109080 44458 88363 11916 63337 24993 105739 45743 19465 20504 8299 24091 57555 4489 39246
is_linear=0
shrinkage=0.05


Tree=13
num_leaves=20
num_cat=0
split_feature=2 4 2 4 7 7 4 7 4 9 2 7 2 4 4 2 4 6 4
split_gain=5418.08 2357.48 974.507 677.72 563.606 492.611 423.369 339.462 236.212 177.24 147.47 138.341 135.228 123.405 112.599 98.2377 95.9701 101.604 85.4887
threshold=6.5000000000000009 38.45000000000001 2.5000000000000004 39.250000000000007 1.5000000000000002 1.0000000180025095e-35 40.250000000000007 1.0000000180025095e-35 37.45000000000001 -0.077874999999999986 1.5000000000000002 1.0000000180025095e-35 10.500000000000002 34.550000000000004 35.050000000000004 4.5000000000000009 34.95000000000001 11.500000000000002 31.950000000000003
decision_type=2 2 2 2 2 2 2 2 2 2 2 2 2 2 2 2 2 2 2
left_child=1 2 5 4 9 10 11 16 13 -2 -1 -3 -6 18 -11 -9 -4 -18 -7
right_child=3 6 7 -5 12 8 -8 15 -10 14 -12 -13 -14 -15 -16 -17 17 -19 -20
leaf_value=0.041082271995907908 -0.02941195124849055 -0.0066282095482000898 0.024681422687188957 -0.06065701062976589 -0.031918840489345887 0.0022768150461165604 -0.054753462353018069 0.0021858728877281386 -0.0025912306743321248 0.010137588964818714 0.025854889839381751 -0.024243168402147745 -0.050852591631258437 0.015010676657240516 -0.01272154334240929 -0.0098317118382271751 -0.0042492218469175076 0.014107981440930756 0.031378580755853501
leaf_weight=3448.1543667204678 1277.8053380837664 2243.2181936744601 1518.4224409954622 1791.1900496860035 2072.4369343249127 282.61064723134041 806.22145862784237 4596.2251739129424 1437.849986160174 716.7093548271805 2950.4990096092224 2215.4477609908208 1730.4928094204515 5251.5683586038649 2169.0713580660522 2699.1817970341071 963.31428356654942 3465.117141963914 2357.0816584303975
leaf_count=8923 27057 9414 6116 40585 40794 874 8306 27860 4332 9422 7851 14468 54786 15153 30380 28612 5062 13440 6121
internal_value=-8.41207e-12 0.00936789 0.0149613 -0.0328673 -0.026619 0.023376 -0.02141 0.00496732 0.0160475 -0.0139089 0.0340607 -0.0153808 -0.0405345 0.0194437 -0.00704427 -0.00226044 0.0138341 0.0101147 0.0282629
internal_weight=43992.6 34234.9 28970 9757.71 7966.52 15727.8 5264.89 13242.3 9329.11 4163.59 6398.65 4458.67 3802.93 7891.26 2885.78 7295.41 5946.85 4428.43 2639.69
internal_count=359556 156532 124344 203024 162439 43254 32188 81090 26480 66859 16774 23882 95580 22148 39802 56472 24618 18502 6995
is_linear=0
shrinkage=0.05


Tree=14
num_leaves=20
num_cat=0
split_feature=3 4 3 4 3 9 4 3 9 4 3 12 3 12 4 12 12 6 3
split_gain=5659.7 2296.5 973.948 630.195 512.699 321.003 289.327 252.44 166.552 162.506 141.193 138.128 125.772 122.072 96.3312 75.5967 70.7457 68.4296 65.8205
threshold=3.0228500000000005 37.95000000000001 1.3480000000000001 39.350000000000001 4.159650000000001 0.055385000000000011 39.850000000000001 0.66750000000000009 0.069315000000000015 40.750000000000007 0.66750000000000009 0.034150000000000007 2.0082000000000004 0.11435000000000002 39.350000000000001 0.14925000000000002 0.067550000000000013 13.500000000000002 2.1102000000000003
decision_type=2 2 2 2 2 2 2 2 2 2 2 2 2 2 2 2 2 2 2
left_child=1 2 7 10 6 12 11 -1 -9 15 -3 -2 -4 -12 16 -5 -6 18 -7
right_child=4 3 5 9 14 17 -8 8 -10 -11 13 -13 -14 -15 -16 -17 -18 -19 -20
leaf_value=0.046059190693984779 -0.029196106844234161 0.025945997388457272 0.0085397662690633001 -0.037282516772231655 -0.049943738800410906 0.015026972359348429 -0.062553713803459407 0.018987780028830073 0.033520489046622366 -0.064357372054884954 -0.013194068758023633 -0.011221994421782041 -0.0030146575348796814 0.002705410705955414 -0.064891524554371652 -0.014272028732258657 -0.028877763215947407 0.020357222106051731 -0.0026277431861071276
leaf_weight=1697.5021764859557 2687.1723284069449 327.6294553950429 4595.4836798720062 1223.1812145281583 2174.5549438032322 1971.7413416989148 489.14921614713967 4869.4636126961559 3312.7161528915167 448.15994049422443 3595.9387344932184 1774.8606207529083 4831.2085262928158 1817.3582598725334 914.59772935975343 504.01285354467109 487.97995403688401 4547.7511231880635 720.97588648553938
leaf_count=4727 54484 911 20079 9241 69865 7589 9977 12452 8390 5586 20178 23902 44028 6821 23836 2633 12038 18050 4769
internal_value=-1.38208e-11 0.00902464 0.0160729 -0.0146112 -0.0364688 0.0086994 -0.0260484 0.028512 0.0248716 -0.037529 -0.00592721 -0.0220466 0.00261809 -0.00785628 -0.0508918 -0.0305678 -0.0460828 0.0166169 0.0102999
internal_weight=42991.4 34463.1 26546.8 7916.28 8528.31 16667.2 4951.18 9879.68 8182.18 2175.35 5740.93 4462.03 9426.69 5413.3 3577.13 1727.19 2662.53 7240.47 2692.72
internal_count=359556 165454 120084 45370 194102 94515 88363 25569 20842 17460 27910 78386 64107 26999 105739 11874 81903 30408 12358
is_linear=0
shrinkage=0.05


Tree=15
num_leaves=20
num_cat=0
split_feature=2 4 7 4 2 7 4 4 2 2 7 4 4 2 4 7 9 4 4
split_gain=4353.68 2119.22 763.012 630.335 538.929 483.02 296.768 267.671 185.011 183.843 160.34 157.185 133.238 105.723 105.367 96.7354 96.1764 94.0067 90.9867
threshold=6.5000000000000009 38.750000000000007 1.5000000000000002 38.850000000000001 2.5000000000000004 1.0000000180025095e-35 37.650000000000013 40.650000000000013 3.5000000000000004 10.500000000000002 1.0000000180025095e-35 35.350000000000001 36.650000000000013 1.5000000000000002 35.050000000000004 1.0000000180025095e-35 0.098305000000000017 34.550000000000004 40.250000000000007
decision_type=2 2 2 2 2 2 2 2 2 2 2 2 2 2 2 2 2 2 2
left_child=1 2 4 5 6 14 10 15 12 -7 13 -6 -4 -1 -2 -3 -13 -12 -5
right_child=3 7 8 18 11 9 -8 -9 -10 -11 17 16 -14 -15 -16 -17 -18 -19 -20
leaf_value=0.041305721113079431 0.018974786135475725 -0.012950531999006901 0.010236162752616244 -0.045339149513344071 0.017698662899008233 -0.024005334651517052 0.0078465549771118189 -0.06145192092732274 -0.012518566002330004 -0.043776595921302341 0.032185531352432011 0.00012449840555468314 -0.0078492519776295431 0.026874583645239314 -0.0086803512282724298 -0.029804378470457294 0.013043019957224533 0.017176311891286235 -0.066123214197529409
leaf_weight=2735.7276414819062 440.29832037119195 1709.1516697788611 3254.6842724811286 1235.0061415350065 3436.5583000909537 3038.7461274419911 2125.9157726243138 473.92559626698494 2376.5299738841131 1917.8044241047464 1522.9793521128595 4290.0634555523284 1482.1437123734504 2367.4181228987873 1581.7772981571034 1696.4453174248338 2169.2210666658357 3311.8249126076698 917.96443689148873
leaf_count=7467 4631 8219 12270 28508 18979 60897 6494 5932 23867 65787 3980 26556 5785 6527 21260 12160 8898 9398 21941
internal_value=-1.96736e-11 0.00846579 0.0130977 -0.0305499 0.0177078 -0.0232534 0.024802 -0.0262454 -0.00113434 -0.0316553 0.0284291 0.00905934 0.00457727 0.0346109 -0.00265856 -0.021346 0.00446292 0.0219043 -0.0542009
internal_weight=42084.2 32952.6 29073.1 9131.6 21959.7 6978.63 12063.9 3879.52 7113.36 4956.55 9937.95 9895.84 4736.83 5103.15 2022.08 3405.6 6459.28 4834.8 2152.97
internal_count=359556 156532 130221 203024 88299 152575 33866 26311 41922 126684 27372 54433 18055 13994 25891 20379 35454 13378 50449
is_linear=0
shrinkage=0.05


Tree=16
num_leaves=20
num_cat=0
split_feature=2 4 4 2 4 9 12 9 1 4 12 4 12 9 4 1 9 2 4
split_gain=3914.23 2066.88 605.85 586.851 552.622 420.623 223.009 202 156.522 137.546 108.898 105.266 120.378 93.1584 88.1862 80.8057 78.5357 71.3522 58.5883
threshold=6.5000000000000009 37.850000000000001 38.850000000000001 2.5000000000000004 39.350000000000001 -0.093554999999999985 -0.018149999999999996 -0.0064449999999999993 3.5000000000000004 41.45000000000001 0.060150000000000002 34.550000000000004 0.14925000000000002 0.0044650000000000011 40.250000000000007 3.5000000000000004 0.099995000000000014 12.500000000000002 34.050000000000004
decision_type=2 2 2 2 2 2 2 2 2 2 2 2 2 2 2 2 2 2 2
left_child=1 3 5 6 8 17 18 -5 10 15 -3 -8 -13 -7 -4 -6 -9 -2 -1
right_child=2 4 14 7 9 13 11 16 -10 -11 -12 12 -14 -15 -16 -17 -18 -19 -20
leaf_value=0.024796337963073886 -0.031195648319566463 -0.0095324082656180129 -0.044202542591264313 -0.0043651670858121079 -0.027307560954638124 -0.016748494164559036 0.035422116827733684 0.0071782369935030829 -0.019642592427372447 -0.074740637707112617 0.0063356231400229978 0.019437936345946889 0.03465935092131598 -0.00019182661510117857 -0.06503752274035747 -0.05528979502508892 0.017460797140469973 -0.048191846807642172 0.0097107910142312324
leaf_weight=799.30400914512575 2185.532508218661 2096.0881061833352 1194.3992377212271 2977.3402201514691 1529.9963987218216 2434.0276464275084 2498.6837873719633 5166.8455361658707 1601.5295603852719 209.97129122726619 2233.1077841138467 4981.871165767312 1757.003666844219 1305.1793426051736 883.58184542367235 310.32829496078193 2898.7987433485687 860.69347244966775 3304.3999494798481
leaf_count=2239 53890 11765 28508 26099 10940 48800 6729 32916 8607 3128 8566 14462 4956 17290 21941 2878 12936 32595 10311
internal_value=-1.39215e-11 0.00806221 -0.0294396 0.015291 -0.0140236 -0.0222055 0.022348 0.00676516 -0.00628774 -0.0364005 -0.00134728 0.0266567 0.0234066 -0.0109693 -0.0530618 -0.0320261 0.0108738 -0.0359978 0.0126491
internal_weight=41228.7 32365.3 8863.41 24384.2 7981.02 6785.43 13341.3 11043 5930.73 2050.3 4329.2 9237.56 6738.87 3739.21 2077.98 1840.32 8065.64 3046.23 4103.7
internal_count=359556 156532 203024 110648 45884 152575 38697 71951 28938 16946 20331 26147 19418 66090 50449 13818 45852 86485 12550
is_linear=0
shrinkage=0.05


Tree=17
num_leaves=20
num_cat=0
split_feature=3 4 3 7 4 3 4 3 7 7 4 4 7 6 6 4 4 3 4
split_gain=4244.58 2066.17 776.138 529.747 435.155 390.244 223.063 185.32 176.172 166.292 131.292 128.46 120.125 100.543 122.274 116.79 100.294 87.0614 74.259
threshold=3.1157000000000008 38.150000000000013 1.1150000000000002 1.0000000180025095e-35 39.650000000000013 4.2993000000000015 39.750000000000007 2.2027500000000004 1.0000000180025095e-35 1.0000000180025095e-35 35.050000000000004 35.050000000000004 1.5000000000000002 16.500000000000004 13.500000000000002 36.750000000000007 41.45000000000001 0.66750000000000009 39.350000000000001
decision_type=2 2 2 2 2 2 2 2 2 2 2 2 2 2 2 2 2 2 2
left_child=1 2 8 10 12 6 9 11 -1 -2 -4 -5 -3 14 -12 -15 -6 -10 -7
right_child=5 4 3 7 16 18 -8 -9 17 -11 13 -13 -14 15 -16 -17 -18 -19 -20
leaf_value=0.039735380006298303 -0.0067403749074358759 -0.0064351755506309467 0.028222442436693692 0.014153283104534165 -0.035768099417983597 -0.044370978919414633 -0.057260666334229209 -0.0075076683437177612 0.036678708518356473 -0.028644674594008636 0.0066838394466119475 0.0015260572615362596 -0.02506942697407824 0.003001982608443296 0.022148254305725396 -0.066389403625102414 -0.072919322292848809 0.018188235978455956 -0.062801680848588809
leaf_weight=2477.6378783993423 1291.2531137969345 4027.1497519761324 2528.978701655753 3229.2065076064318 1301.7693654545583 2084.7974321823567 488.68751304596663 3405.5946181067266 825.49688421934843 2633.8799716159701 2009.924292113632 5352.9474210012704 1101.407828620635 394.72663175687194 3511.2099273456261 71.642142035067081 211.12699509505183 2782.0799406170845 740.68591104308143
leaf_count=7338 16566 20065 9705 14699 11282 74006 11274 39897 2479 62565 9312 24845 7909 1756 13050 493 3402 6878 22035
internal_value=2.35636e-12 0.00755783 0.0137888 0.00913512 -0.0173884 -0.0346931 -0.0254049 0.00236114 0.0294697 -0.0214388 0.0186701 0.0062773 -0.0104371 0.0146355 0.0165186 -0.00765771 -0.0409526 0.0224193 -0.0492025
internal_weight=40470.2 33230.9 26589.4 20504.2 6641.45 7239.3 4413.82 11987.7 6085.21 3925.13 8516.48 8582.15 5128.56 5987.5 5521.13 466.369 1512.9 3607.58 2825.48
internal_count=359556 173110 130452 113757 42658 186446 90405 79441 16695 79131 34316 39544 27974 24611 22362 2249 14684 9357 96041
is_linear=0
shrinkage=0.05


Tree=18
num_leaves=20
num_cat=0
split_feature=3 3 3 7 3 7 7 3 7 7 3 3 3 6 3 7 7 3 6
split_gain=3834.75 916.911 368.241 352.338 340.483 213.484 142.22 106.584 78.4582 69.5597 47.4941 43.3777 42.6725 40.959 38.2073 34.9787 32.0422 31.9793 28.5374
threshold=3.1157000000000008 1.6770500000000002 4.2113500000000013 1.0000000180025095e-35 0.66750000000000009 1.0000000180025095e-35 1.0000000180025095e-35 2.3841500000000004 1.5000000000000002 1.0000000180025095e-35 2.0346500000000005 1.1150000000000002 0.93590000000000007 11.500000000000002 4.9196500000000007 1.5000000000000002 1.5000000000000002 0.43775000000000003 11.500000000000002
decision_type=2 2 2 2 2 2 2 2 2 2 2 2 2 2 2 2 2 2 2
left_child=1 4 6 10 17 12 18 16 11 -4 -3 -7 -6 -12 -11 -9 -5 -1 -2
right_child=2 3 9 7 5 8 -8 15 -10 14 13 -13 -14 -15 -16 -17 -18 -19 -20
leaf_value=0.044805303787236565 -0.02520346004266312 0.012305393163929076 -0.030774568310169836 -0.00023730448355830264 0.028519774929458692 0.016992409854640018 -0.03061102051974969 -0.0099977597855741389 0.0017282240532522589 -0.044040405062881177 -0.0064103307345955403 0.0078841403383264862 0.017646609310144553 0.0060721881750590758 -0.056762913709124674 -0.020144294306139725 -0.0080631729039282035 0.030691917305348478 -0.0072644356951121732
leaf_weight=577.36767305806279 277.67464339919388 2512.6626864839345 524.16195382084697 2749.5752650918439 1081.7248278073967 2080.7428109720349 2711.277742815204 1619.3201636262238 3502.2058470901102 1094.6790178297088 821.05086788069457 3516.0573054905981 5441.708129783161 3292.7254476104863 1280.3121788366698 1786.4502974897623 2494.6901789400727 1316.7334300428629 1099.686470001936
leaf_count=1831 3835 9807 14503 18568 3274 5381 65288 19205 12332 37594 5764 12580 16823 19938 49986 24659 18795 4153 15240
internal_value=1.46759e-11 0.00716607 -0.0336297 -0.00178666 0.0149739 0.0125466 -0.0239644 -0.00843279 0.00759759 -0.0472604 0.00688909 0.0112704 0.0194496 0.00358086 -0.0508989 -0.01532 -0.00396006 0.034994 -0.0108809
internal_weight=39780.8 32793 6987.79 15276.5 17516.5 15622.4 4088.64 8650.04 9099.01 2899.15 6626.44 5596.8 6523.43 4113.78 2374.99 3405.77 5244.27 1894.1 1377.36
internal_count=359556 173110 186446 116736 56374 50390 84363 81227 30293 102083 35509 17961 20097 25702 87580 43864 37363 5984 19075
is_linear=0
shrinkage=0.05


Tree=19
num_leaves=20
num_cat=0
split_feature=3 4 3 4 7 4 7 4 7 4 1 6 6 4 4 4 3 4 3
split_gain=3437.17 2020.72 634.731 475.453 392.238 361.532 279.016 185.511 150.655 139.147 127.205 127.186 171.892 132.365 112.459 104.819 96.256 92.797 85.6749
threshold=3.1157000000000008 37.95000000000001 1.1150000000000002 39.250000000000007 1.5000000000000002 39.250000000000007 1.5000000000000002 34.850000000000001 1.0000000180025095e-35 40.750000000000007 3.5000000000000004 12.500000000000002 16.500000000000004 36.45000000000001 31.950000000000003 13.350000000000003 4.7609000000000012 34.850000000000001 2.0856500000000007
decision_type=2 2 2 2 2 2 2 2 2 2 2 2 2 2 2 2 2 2 2
left_child=1 2 8 10 7 6 17 14 -1 -5 -3 -9 -13 -14 15 -4 -8 -2 -6
right_child=5 3 4 9 18 -7 16 11 -10 -11 -12 12 13 -15 -16 -17 -18 -19 -20
leaf_value=0.038640850932722098 0.0040213200628186089 -0.0027479037850109325 0.030192243152050692 -0.029154962723834683 0.0025360383548652448 -0.055715897578859919 -0.032309216366174176 0.0006609523762493416 0.021844174570717703 -0.061255180584004303 -0.020200544878774308 0.016253950265656746 0.0019526026674478371 -0.047998487898971848 0.026412494913057905 -0.010469226891902897 -0.053447327050238171 -0.019958358646294531 -0.010777478001428163
leaf_weight=2214.5696495641023 488.98116411711089 3761.0169882900082 248.17828442156315 1885.8811936089769 3247.8754416275769 1342.9834595820867 1826.8552425061353 2663.4902060581371 3361.1465169601142 411.20870710141025 1445.2434557480738 6411.9754089098424 701.84974945522845 163.52535099256784 3390.0966184712015 438.59743849933147 763.70359805645421 2306.4453228600323 1924.364206045866
leaf_count=7024 9422 18827 1160 14069 15879 38832 53352 15035 9072 5994 8881 29400 3691 1182 15500 2599 34530 50310 24797
internal_value=5.34983e-12 0.00677846 0.0136655 -0.015953 0.00935078 -0.0325064 -0.0267191 0.013693 0.0285155 -0.0349013 -0.00759271 0.0100094 0.0134309 -0.00748639 0.0226748 0.0042245 -0.0385408 -0.0157638 -0.00241734
internal_weight=38998 32269 24765.7 7503.35 19190 6728.97 5385.99 14017.7 5575.72 2297.09 5206.26 9940.84 7277.35 865.375 4076.87 686.776 2590.56 2795.43 5172.24
internal_count=359556 173110 125339 47771 109243 186446 147614 68567 16096 20063 27708 49308 34273 4873 19259 3759 87882 59732 40676
is_linear=0
shrinkage=0.05


Tree=20
num_leaves=20
num_cat=0
split_feature=3 4 3 4 4 3 9 3 4 4 1 9 4 3 9 4 9 1 4
split_gain=3111.06 1974.69 538.738 511.483 324.211 235.18 212.611 144.15 139.777 132.955 130.021 118.663 103.928 94.7761 94.3096 81.9214 77.8214 70.1837 61.462
threshold=3.1843000000000004 37.750000000000007 1.26685 39.250000000000007 39.350000000000001 4.5533500000000009 0.093805000000000013 0.66750000000000009 34.550000000000004 40.750000000000007 3.5000000000000004 0.073345000000000007 31.950000000000003 2.4203500000000004 -0.097334999999999991 13.350000000000003 0.059035000000000011 3.5000000000000004 33.95000000000001
decision_type=2 2 2 2 2 2 2 2 2 2 2 2 2 2 2 2 2 2 2
left_child=1 2 7 10 5 14 8 -1 12 17 16 -9 15 -10 -2 -4 -3 -5 -14
right_child=4 3 6 9 -6 -7 -8 11 13 -11 -12 -13 18 -15 -16 -17 -18 -19 -20
leaf_value=0.039963290409077312 -0.030114574133048334 -0.008425658410281648 0.021377878831372928 -0.024262438851381154 -0.056067184715515764 -0.044272488265417874 0.017779429907180132 0.016219748854476048 0.0052973734962795255 -0.060292839037638025 -0.018220723495724518 0.030947847403046493 0.028407098703541928 -0.0061604894099752446 -0.013541475937790549 -0.023194674717854424 0.0047528099523128659 -0.049059560875922191 0.011991573753257885
leaf_weight=1333.7382930889726 1426.859914484201 2439.5007075183094 161.5273819915019 1537.718628142029 1182.5114861638285 1406.5491673022043 4643.112907958217 3646.523078372702 6587.8306646635756 409.47991735627875 1815.3373267827556 2188.3352420274168 1026.0533528882079 2485.832188771572 2154.6070668594912 284.92631770949811 2071.4656901462004 350.36240967363119 1283.497394638136
leaf_count=4561 41447 14705 1076 11037 35859 60448 19268 10162 34270 6305 11389 6235 6772 29742 42976 2539 8179 3599 8987
internal_value=1.37358e-11 0.00622085 0.0136916 -0.0142595 -0.0325284 -0.026948 0.00871248 0.0251333 0.00515373 -0.0344653 -0.00692124 0.0217435 0.0150155 0.00215836 -0.0201442 -0.00706828 -0.00237402 -0.0288639 0.0192844
internal_weight=38435.8 32265.2 23641.4 8623.86 6170.53 4988.02 16472.8 7168.6 11829.7 2297.56 6326.3 5834.86 2756 9073.66 3581.47 446.454 4510.97 1888.08 2309.55
internal_count=359556 178826 123612 55214 180730 144871 102654 20958 83386 20941 34273 16397 19374 64012 84423 3615 22884 14636 15759
is_linear=0
shrinkage=0.05


Tree=21
num_leaves=20
num_cat=0
split_feature=4 3 4 3 4 3 3 6 12 4 4 4 4 4 12 4 6 6 3
split_gain=2922.14 1666.86 544.268 518.298 304.84 220.521 195.726 161.09 146.448 124.132 113.873 104.532 133.607 123.386 103.224 97.4848 92.6073 89.5207 87.8443
threshold=38.350000000000001 3.1843000000000004 39.850000000000001 0.97440000000000004 35.050000000000004 2.9729500000000004 4.7804000000000011 16.500000000000004 0.074350000000000013 36.750000000000007 37.45000000000001 31.950000000000003 13.350000000000003 34.050000000000004 -0.034949999999999995 41.050000000000004 14.500000000000002 13.500000000000002 0.55920000000000003
decision_type=2 2 2 2 2 2 2 2 2 2 2 2 2 2 2 2 2 2 2
left_child=1 3 5 18 11 -2 14 8 10 -9 16 12 -5 -13 -3 -4 -6 -10 -1
right_child=2 6 15 4 7 -7 -8 9 17 -11 -12 13 -14 -15 -16 -17 -18 -19 -20
leaf_value=0.042599333043099097 -0.014095989410274977 -0.028839729932205755 -0.042139728557043565 0.025965621305909854 -0.001417269390546853 -0.037365367128195423 -0.045127265374730108 -0.0072757753380348761 0.0036415371389361957 -0.055902613078891134 -0.0074175619265405418 0.028664327368696244 -0.014716746259842612 0.014113532820747435 -0.010297799203770996 -0.065232186347528767 0.010746158919661089 0.017286254039450614 0.024326659423160077
leaf_weight=836.93096854537725 4139.0245894589461 1248.2950767751317 1299.1879549431615 321.85424915701151 2791.6841477584094 1350.3449615640566 820.31679385667667 935.63967612851411 1859.0101263420656 152.65475273411721 2382.3416009945795 2186.3847293751314 541.12376704066992 4366.6537474268116 1882.6368139772676 705.03508750954643 3560.8572998405434 3401.7211509905756 3071.8873713742942
leaf_count=3056 23325 40091 22571 1642 18382 35588 39926 6043 9264 1371 14954 11363 3768 24195 41263 17228 22381 13941 9204
internal_value=-4.1718e-12 0.00690179 -0.0279623 0.0114335 0.00851393 -0.0198201 -0.0233866 0.00443315 0.00587402 -0.0140966 0.00190475 0.0168141 0.000456054 0.0189683 -0.0176904 -0.0502631 0.00540083 0.0124646 0.0282391
internal_weight=37853.6 30360 7493.59 26408.7 22499.9 5489.37 3951.25 15083.9 13995.6 1088.29 8734.88 7416.02 862.978 6553.04 3130.93 2004.22 6352.54 5260.73 3908.82
internal_count=359556 260844 98712 139564 127304 58913 121280 86336 78922 7414 55717 40968 5410 35558 81354 39799 40763 23205 12260
is_linear=0
shrinkage=0.05


Tree=22
num_leaves=20
num_cat=0
split_feature=4 3 7 4 4 7 9 3 4 7 3 3 4 4 4 10 3 3 3
split_gain=2765.52 1557.96 557.238 421.127 368.804 234.06 205.919 192.252 174.78 116.394 98.1682 89.801 84.2461 104.872 91.0931 76.5332 75.9909 71.5192 67.1722
threshold=38.550000000000004 3.1157000000000008 1.5000000000000002 40.250000000000007 35.150000000000013 1.5000000000000002 0.0051750000000000008 1.0471500000000002 36.550000000000004 1.0000000180025095e-35 2.0605000000000007 0.93590000000000007 31.950000000000003 33.95000000000001 13.350000000000003 0.0039500000000000013 4.4230000000000009 4.7804000000000011 4.0561500000000015
decision_type=2 2 2 2 2 2 2 2 2 2 2 2 2 2 2 2 2 2 2
left_child=1 2 4 6 11 16 18 -6 10 -9 -4 -1 14 -14 -13 -8 -3 -7 -2
right_child=3 5 8 -5 7 17 15 9 -10 -11 -12 12 13 -15 -16 -17 -18 -19 -20
leaf_value=0.03674153167744789 -0.029487896625552575 -0.0061525087460824936 0.0088564700609951776 -0.054864257282939137 0.022933184124784591 -0.028624912841144282 -0.0086635028468623268 0.011375310871233092 -0.012821326795582176 0.00085366815375712175 -0.0074559646472566023 0.028166534409499011 0.037060013859598888 0.019883660288165576 -0.0077600765587923885 -0.028370250028457389 -0.028863399260092196 -0.049888345607472122 -0.049434129031167166
leaf_weight=1176.1322327032685 1780.2741375616752 1781.8675072980113 3119.9380680434406 1362.8604355934076 2322.404268078506 1481.9106972822919 1918.9353809282184 6448.9744636556134 2356.0245336275548 4436.851440901868 1309.3737995484844 285.03526785410941 1162.8926006210968 3768.4115911461413 463.09970007184893 662.85910159535706 464.30190896335989 539.39372533722781 553.26929193548858
leaf_count=3639 20800 33924 13601 30247 7785 48925 11565 27552 16809 27131 17702 1265 4705 17200 2745 4962 18364 29551 21084
internal_value=7.64361e-12 0.00610765 0.010568 -0.0302713 0.014757 -0.0219552 -0.0234525 0.00987315 -0.00181839 0.00708689 0.00403426 0.0241664 0.0215622 0.0239342 0.00592776 -0.0137231 -0.010847 -0.0342992 -0.034217
internal_weight=37394.8 31116.6 26849.1 6278.2 20063.8 4267.47 4915.34 13208.2 6785.34 10885.8 4429.31 6855.57 5679.44 4931.3 748.135 2581.79 2246.17 2021.3 2333.54
internal_count=359556 270898 140134 88658 92022 130764 58411 62468 48112 54683 31303 29554 25915 21905 4010 16527 52288 78476 41884
is_linear=0
shrinkage=0.05


Tree=23
num_leaves=20
num_cat=0
split_feature=4 3 4 3 3 3 9 4 9 3 4 4 4 4 9 12 12 12 4
split_gain=2691.75 1276.79 550.488 453.43 224.868 211.844 170.19 166.965 167.352 113.318 108.086 97.8684 91.5757 78.1183 69.3392 62.4406 56.8173 55.8714 47.3194
threshold=38.150000000000013 3.4610500000000006 39.750000000000007 1.6770500000000002 3.0421000000000005 0.66750000000000009 -0.031724999999999996 34.650000000000013 0.098305000000000017 4.8215000000000012 41.350000000000001 37.45000000000001 35.350000000000001 39.050000000000004 0.0082150000000000018 0.10325000000000002 0.13695000000000004 -0.0097499999999999983 31.950000000000003
decision_type=2 2 2 2 2 2 2 2 2 2 2 2 2 2 2 2 2 2 2
left_child=1 3 4 5 13 -1 -5 18 11 17 14 -9 -8 16 -4 -6 -2 -3 -7
right_child=2 9 10 6 15 7 12 8 -10 -11 -12 -13 -14 -15 -16 -17 -18 -19 -20
leaf_value=0.036525754292397794 -0.012555183960155168 -0.027785758098902741 -0.050256490256188759 -0.0062627070209773112 -0.040932984037733738 0.0096970920521519607 0.013139971047627583 0.0097929999254627864 0.022053971018948945 -0.043121718420653501 -0.066831604027052613 -0.0068511049635950373 0.0030696008954510627 -0.022174208339987379 -0.029183785135716785 -0.014624867216020663 0.0015433687188806076 -0.011381345391756448 0.02669675419368105
leaf_weight=1274.2042913231999 2431.1830787658691 1013.9531843864825 849.78345481632277 3107.5003167297691 1082.886517070001 474.25096611119807 3862.105134206824 5014.4049581177533 2581.4041889477521 663.59860543906689 522.21145971328951 1072.0243130270392 5433.597756314557 1471.6496002506465 722.07781325047836 284.87526802229695 1012.109366751276 1063.4193169269711 2991.4354354524985
leaf_count=4900 14648 37689 21255 40016 33255 1715 28471 16833 8160 36388 13983 3726 37227 9355 7280 5458 4040 26166 8991
internal_value=-2.07129e-11 0.00731184 -0.0249221 0.0107574 -0.0175222 0.0171314 0.00386719 0.0150947 0.011386 -0.0251342 -0.0471236 0.00686141 0.00725356 -0.0125321 -0.0405762 -0.0354536 -0.0084111 -0.0193882 0.0243705
internal_weight=36928.7 28551.9 8376.78 25810.9 6282.7 13407.7 12403.2 12133.5 8667.83 2740.97 2094.07 6086.43 9295.7 4914.94 1571.86 1367.76 3443.29 2077.37 3465.69
internal_count=359556 250282 109274 150039 66756 44325 105714 39425 28719 100243 42518 20559 65698 28043 28535 38713 18688 63855 10706
is_linear=0
shrinkage=0.05


Tree=24
num_leaves=20
num_cat=0
split_feature=4 3 4 3 3 3 4 4 4 1 6 4 4 6 4 4 4 3 6
split_gain=2569.28 1114.82 602.11 329.296 300.156 233.19 187.707 130.378 104.702 94.6473 94.3545 116.644 87.2313 82.2686 95.8874 78.635 76.5499 66.5799 65.1125
threshold=37.95000000000001 2.5055000000000001 39.550000000000004 3.7784500000000003 0.97440000000000004 3.4610500000000006 34.650000000000013 40.850000000000001 31.950000000000003 3.5000000000000004 16.500000000000004 36.45000000000001 13.350000000000003 12.500000000000002 37.45000000000001 35.050000000000004 38.750000000000007 4.9989000000000008 16.500000000000004
decision_type=2 2 2 2 2 2 2 2 2 2 2 2 2 2 2 2 2 2 2
left_child=1 4 5 15 -1 9 8 -4 12 16 13 -12 -6 -8 -15 -3 -2 -5 -17
right_child=2 3 7 17 6 -7 10 -9 -10 -11 11 -13 -14 14 -16 18 -18 -19 -20
leaf_value=0.027118697775458452 -0.001959402428482243 0.0062523531156862197 -0.036115262566540282 -0.022382742579981144 0.023995654451403472 -0.037094338124519947 0.0020735521841861652 -0.061073870239751284 0.022721097781142171 -0.021518597381090875 0.00052576473295383442 -0.045097511982060585 -0.01249961935624011 0.014252562087962196 0.00038954250150546676 -0.0052390686952688038 -0.01560582543836189 -0.044063146488429253 -0.029583827549625852
leaf_weight=3412.9333543293178 2616.7541554104537 1524.4614098751917 1704.6406445016619 1363.8455381134991 266.75954368151724 1017.7513497839682 3050.4036186719313 754.99021488195285 3887.2502015912905 1612.6536668771878 999.99772208556533 162.92271917127073 423.94982112012804 6727.6198145495728 1531.2456059036776 2912.265704608988 1692.2276181029156 478.31025289534591 303.25961739895865
leaf_count=11440 14473 22914 28638 51090 1145 33943 15232 19867 17146 12115 4641 1047 2379 29773 6578 42512 10931 28165 5527
internal_value=2.27971e-11 0.00782632 -0.0225198 -0.0100727 0.0135837 -0.0149856 0.0108744 -0.0437764 0.0195337 -0.0111857 0.00769599 -0.00586596 0.00159526 0.00909055 0.0116823 -0.00310078 -0.00731864 -0.028012 -0.00753505
internal_weight=36444.2 27045.2 9399.02 6582.14 20463.1 6939.39 17050.1 2459.63 4577.96 5921.64 12472.2 1162.92 690.709 11309.3 8258.87 4739.99 4308.98 1842.16 3215.53
internal_count=359556 239589 119967 150208 89381 71462 77941 48505 20670 37519 57271 5688 3524 51583 36351 70953 25404 79255 48039
is_linear=0
shrinkage=0.05


Tree=25
num_leaves=20
num_cat=0
split_feature=4 3 7 4 4 7 7 3 7 4 4 4 1 3 4 4 3 7 3
split_gain=2460.16 1039.68 555.104 492.58 308.81 230.806 155.331 134.694 133.247 125.832 118.931 98.5924 94.7561 94.4784 83.7254 77.1335 64.7498 61.5915 58.1656
threshold=38.150000000000013 3.4610500000000006 1.5000000000000002 39.750000000000007 34.850000000000001 1.5000000000000002 1.0000000180025095e-35 1.26685 1.0000000180025095e-35 36.550000000000004 31.950000000000003 41.350000000000001 3.5000000000000004 2.0605000000000007 13.550000000000002 33.95000000000001 4.8215000000000012 1.0000000180025095e-35 3.3759000000000006
decision_type=2 2 2 2 2 2 2 2 2 2 2 2 2 2 2 2 2 2 2
left_child=1 2 4 5 10 12 7 -6 -3 13 14 17 -2 -4 -1 -12 -10 -5 -7
right_child=3 8 9 11 6 18 -8 -9 16 -11 15 -13 -14 -15 -16 -17 -18 -19 -20
leaf_value=0.019128660248842581 -0.0070107624119496838 -0.0040474631351917227 0.007365502698641585 -0.027171074278614333 0.026541632562665136 -0.02687657772518728 0.0039891128398387571 0.011147504238968566 -0.024408359865248152 -0.012511319682766404 0.037093470702253516 -0.065450812499489794 -0.023635075746058748 -0.0079532695639885354 -0.012562042218216177 0.023254094152876739 -0.045229926042965579 -0.047788384596400175 -0.047151583221887422
leaf_weight=585.16223019082099 3320.3003926533274 668.95911728637293 3068.7915023462847 604.93075830955058 1895.3040521144867 1141.144779285416 5550.1233528475277 5677.4699653452262 1392.8698520893231 2073.5948279905133 1469.4288037642837 484.15201501967385 1155.4395201960579 1497.7770152147859 323.71452022623271 3198.0143814962357 510.12835160922259 902.92284091096371 512.65712626744062
leaf_count=2947 24756 15172 13601 8312 6844 9789 34119 27908 52530 17273 6028 13983 12741 24149 2149 15021 32541 20223 19470
internal_value=5.81798e-12 0.00704744 0.0101219 -0.0242199 0.0145318 -0.0172002 0.0103433 0.0150003 -0.0232423 -0.002297 0.0243888 -0.0458201 -0.0113024 0.00234114 0.00784139 0.0276111 -0.0299899 -0.039517 -0.0331616
internal_weight=36032.9 27911.3 25339.4 8121.55 18699.2 6129.54 13122.9 7572.77 2571.96 6640.16 5576.32 1992.01 4475.74 4566.57 908.877 4667.44 1903 1507.85 1653.8
internal_count=359556 250282 150039 109274 95016 66756 68871 34752 100243 55023 26145 42518 37497 37750 5096 21049 85071 28535 29259
is_linear=0
shrinkage=0.05


Tree=26
num_leaves=20
num_cat=0
split_feature=4 3 4 7 7 7 4 4 3 1 4 4 3 12 4 3 4 7 3
split_gain=2394.64 891.545 604.993 351.601 288.497 242.813 154.916 148.724 127.933 117.555 106.629 103.805 101.222 87.033 78.0904 76.5018 73.5897 73.306 64.2218
threshold=37.750000000000007 2.5055000000000001 39.350000000000001 1.0000000180025095e-35 1.5000000000000002 1.5000000000000002 34.550000000000004 40.850000000000001 1.2088500000000002 3.5000000000000004 31.950000000000003 34.850000000000001 3.5821000000000005 0.084450000000000011 35.250000000000007 3.6801000000000004 33.150000000000013 1.5000000000000002 3.5481500000000001
decision_type=2 2 2 2 2 2 2 2 2 2 2 2 2 2 2 2 2 2 2
left_child=1 3 5 8 11 9 10 13 -1 -2 -5 -3 -6 -4 -10 -7 -12 -8 -13
right_child=2 4 7 6 12 15 17 -9 14 -11 16 18 -14 -15 -16 -17 -18 -19 -20
leaf_value=0.031978905242733321 -0.0028135207795699909 0.014128404743257827 -0.041174797994571653 -0.0074375250963079958 -0.013183946575810641 -0.022509621441777192 0.008199068013374531 -0.05979092181533479 0.025229661929169391 -0.019035443070509313 0.044591683779860253 0.00014048652347926815 -0.034084412872270702 -0.020292477091012406 0.013103898512086638 -0.045974436044086742 0.017552701083651728 -0.001476326297804231 -0.016924625899728908
leaf_weight=2181.2215969394892 3938.1074990124907 988.20123837864958 1330.6554380496964 400.35450468584895 1354.8168110125698 1551.8743942221627 4679.6057644505054 708.51847183075733 2143.0245781205595 1558.8925761159044 276.7926211534068 1887.6838084245101 1012.0325342260767 798.30325038614683 3490.1845128964633 447.52886637533084 2768.9510825043544 3365.6971575757489 778.77005009865388
leaf_count=7941 26906 14623 26388 2299 27442 14225 21439 19867 7826 15249 1112 22051 53420 8969 13333 19327 12525 19093 25521
internal_value=-1.06918e-11 0.00827616 -0.0202841 0.0135152 -0.0085211 -0.012841 0.00795091 -0.0399482 0.0216978 -0.00741389 0.0168212 0.00028635 -0.0221207 -0.0333445 0.0177169 -0.0277618 0.02001 0.00415143 -0.00484359
internal_weight=35661.2 25327.3 10333.9 19305.8 6021.5 7496.4 11491.4 2837.48 7814.43 5497 3446.1 3654.66 2366.85 2128.96 5633.21 1999.4 3045.74 8045.3 2666.45
internal_count=359556 228625 130931 85568 143057 75707 56468 55224 29100 42155 15936 62195 80862 35357 21159 33552 13637 40532 47572
is_linear=0
shrinkage=0.05


Tree=27
num_leaves=20
num_cat=0
split_feature=4 3 4 7 4 7 3 4 4 4 7 4 7 4 4 4 3 3 12
split_gain=2330.03 803.395 535.22 446.682 247.513 215.889 130.913 115.408 112.511 112.483 98.3915 93.8946 86.5229 80.7758 79.5981 71.1251 68.8209 64.5748 57.7868
threshold=37.850000000000001 3.5130000000000003 39.550000000000004 1.5000000000000002 34.850000000000001 1.5000000000000002 0.93590000000000007 40.850000000000001 31.950000000000003 34.050000000000004 1.0000000180025095e-35 31.950000000000003 1.0000000180025095e-35 33.95000000000001 13.550000000000002 38.750000000000007 2.4024000000000005 3.4797000000000007 0.019550000000000001
decision_type=2 2 2 2 2 2 2 2 2 2 2 2 2 2 2 2 2 2 2
left_child=1 3 5 4 8 15 -6 18 14 11 -3 -5 -8 -10 -1 -2 -11 -7 -4
right_child=2 10 7 9 6 17 12 -9 13 16 -12 -13 -14 -15 -16 -17 -18 -19 -20
leaf_value=0.0182301359715446 -0.0049547800031774234 -0.0035043117379750261 -0.044847475604993303 -0.026200715708058504 0.025203908555875496 -0.023239312775489577 0.012534036322268884 -0.05914812655288415 0.036176241191121145 -0.0008270386358647738 -0.028084611207079769 0.018668786231022767 0.0033346488498922945 0.021993478153357015 -0.012796094411850601 -0.016989572272412521 -0.014280664353693099 -0.044009850973165759 -0.025900465515034561
leaf_weight=579.18579578027129 3478.4374237174634 550.73996558249928 751.14555881056003 132.29051510011777 1347.3177477270365 1434.7902010958642 6047.8646468156949 687.67639447096735 1466.0236892057583 3793.7895191321149 1561.1986210746691 982.69544497854076 4426.8208315805532 3184.9441403346136 321.45311598200351 1897.3254543235525 1268.3627118985169 506.23248620680533 866.83478702232242
leaf_count=2980 25558 13426 16883 1713 5281 12612 28848 19867 6084 20702 77023 7093 29525 15195 2188 17477 24011 21335 11755
internal_value=-3.88878e-11 0.00786767 -0.0209828 0.0105169 0.0146229 -0.0143632 0.0105332 -0.0419894 0.0233317 -0.00103139 -0.0216747 0.0133451 0.00864618 0.026464 0.00715635 -0.00920235 -0.00419795 -0.0286564 -0.0346966
internal_weight=35285.1 25662.7 9622.44 23550.7 17373.6 7316.79 11822 2305.66 5551.61 6177.14 2111.94 1114.99 10474.7 4650.97 900.639 5375.76 5062.15 1941.02 1617.98
internal_count=359556 234069 125487 143620 90101 76982 63654 48505 26447 53519 90449 8806 58373 21279 5168 43035 44713 33947 28638
is_linear=0
shrinkage=0.05


Tree=28
num_leaves=20
num_cat=0
split_feature=4 3 4 7 7 7 4 3 3 4 3 4 4 4 4 4 4 1 4
split_gain=2261.54 716.875 536.079 287.245 246.083 223.929 146.696 119.975 116.148 109.97 95.2377 94.1334 93.4616 79.4718 67.4393 67.0756 62.8231 60.2702 57.4735
threshold=37.750000000000007 2.5055000000000001 39.550000000000004 1.0000000180025095e-35 1.5000000000000002 1.0000000180025095e-35 34.550000000000004 1.2088500000000002 3.4610500000000006 40.750000000000007 4.1767000000000012 35.050000000000004 31.950000000000003 35.45000000000001 36.95000000000001 33.150000000000013 13.350000000000003 3.5000000000000004 38.850000000000001
decision_type=2 2 2 2 2 2 2 2 2 2 2 2 2 2 2 2 2 2 2
left_child=1 3 5 7 11 17 12 -1 18 -4 -6 -3 16 -9 -8 -14 -5 -2 -7
right_child=2 4 9 6 10 8 14 13 -10 -11 -12 -13 15 -15 -16 -17 -18 -19 -20
leaf_value=0.030497581173991473 -0.00028092106999985065 0.012640262635463967 -0.033843377722813567 0.018541617282643596 -0.014151333582066395 -0.013683846085555881 0.0065983509719089303 0.023231149127437772 -0.038740026411914777 -0.057468355712102549 -0.037713912753157663 -0.0046749215155443965 0.042899036049687478 0.011225756080066891 -0.0042061885146927038 0.017014920228500631 -0.022819802447692276 -0.015299807377051819 -0.028000558830976758
leaf_weight=2084.9325910881162 2535.7180029307492 1155.6644885535352 1535.1419089646079 150.17813877388835 1667.4436671943404 2642.1470157611184 6030.7089919587597 2440.3840992851183 782.35164380026981 725.29551281454042 577.33085652347654 2446.7826166984159 275.37074104417115 3167.9076341837645 1899.0253226282075 2747.6298697497696 236.19177631475031 906.88699486199766 954.15994417248294
leaf_count=7941 14362 17585 27197 745 42692 19786 30970 8954 32187 21308 38170 44610 1112 12205 9562 12525 1554 7790 8301
internal_value=1.09434e-11 0.00809514 -0.0199771 0.0127995 -0.0072172 -0.0137788 0.00773991 0.0202568 -0.0212805 -0.0414238 -0.0202114 0.000879787 0.0164132 0.0164498 0.00401086 0.0193728 -0.00674303 -0.00423735 -0.0174823
internal_weight=34961.3 24879.6 10081.7 19032.3 5847.22 7821.26 11339.1 7693.22 4378.66 2260.44 2244.77 3602.45 3409.37 5608.29 7929.73 3023 386.37 3442.6 3596.31
internal_count=359556 228625 130931 85568 143057 82426 56468 29100 60274 48505 80862 62195 15936 21159 40532 13637 2299 22152 28087
is_linear=0
shrinkage=0.05


Tree=29
num_leaves=20
num_cat=0
split_feature=4 3 4 7 4 7 4 7 3 4 4 4 4 3 4 7 3 3 3
split_gain=2199.92 688.636 427.716 378.451 278.476 204.692 119.616 104.935 99.7766 84.5777 78.0598 123.661 70.7179 66.4593 60.8854 60.3843 59.1796 51.6786 43.2582
threshold=38.050000000000004 3.4610500000000006 40.050000000000004 1.5000000000000002 35.250000000000007 1.5000000000000002 36.550000000000004 1.0000000180025095e-35 0.7652000000000001 38.750000000000007 31.950000000000003 34.150000000000013 13.350000000000003 2.0605000000000007 41.45000000000001 1.0000000180025095e-35 4.8215000000000012 4.0386500000000014 1.3480000000000001
decision_type=2 2 2 2 2 2 2 2 2 2 2 2 2 2 2 2 2 2 2
left_child=1 3 5 4 10 9 13 -3 -6 -2 12 -12 -1 -5 -4 18 -9 -7 -10
right_child=2 7 14 6 8 17 -8 16 15 -11 11 -13 -14 -15 -16 -17 -18 -19 -20
leaf_value=0.024903836623288711 -0.0059202329837553741 -0.0018626641423461897 -0.041172387786604342 0.0077298802209561012 0.026590617876674577 -0.027569685491357666 -0.011540414300045687 -0.020466624457473465 0.01813708640574577 -0.018868942184287293 0.033093248088499186 0.018026964406503889 -0.0041906946613368759 -0.0054766920483057084 -0.06432161091505402 0.0023005456502994208 -0.042292586024225066 -0.048634921889170318 0.0078317758370011637
leaf_weight=338.75462793651968 2593.59748379956 618.34463797556236 998.25437945965677 2974.8535484531894 685.04963210597634 1447.5119758024812 1893.7792502837256 1213.7897730201948 1317.4025527779013 2454.554645858705 2001.7208514101803 4261.2287073410116 544.66250213608146 1401.3526520850137 397.00296503608115 4201.0011398447677 417.36641372623853 364.45711793354712 4485.588829790242
leaf_count=1605 19510 14778 21837 13601 3114 16770 16349 51463 4779 25322 8581 21046 3491 24149 12977 27444 31643 18157 22940
internal_value=8.66426e-12 0.00705519 -0.0225233 0.00952418 0.0132388 -0.0173907 -0.00104219 -0.0194023 0.00813024 -0.0122163 0.0208797 0.0228423 0.00696588 0.00350086 -0.0477592 0.00686612 -0.0260513 -0.0318067 0.0101713
internal_weight=34610.3 26354.9 8255.38 24105.4 17835.4 6860.12 6269.99 2249.5 10689 5048.15 7146.37 6262.95 883.417 4376.21 1395.26 10004 1631.16 1811.97 5802.99
internal_count=359556 244983 114573 147099 93000 79759 54099 97884 58277 44832 34723 29627 5096 37750 34814 55163 83106 34927 27719
is_linear=0
shrinkage=0.05


Tree=30
num_leaves=20
num_cat=0
split_feature=4 3 4 7 4 4 7 6 6 4 4 4 3 4 7 7 3 4 7
split_gain=2147.35 596.716 487.488 330.677 224.427 168.33 153.885 120.625 148.499 136.705 117.167 110.282 90.802 90.0141 89.543 85.7003 83.0421 70.3998 57.6
threshold=37.750000000000007 3.4797000000000007 39.050000000000004 1.5000000000000002 34.650000000000013 40.550000000000004 1.0000000180025095e-35 12.500000000000002 16.500000000000004 35.750000000000007 31.950000000000003 34.050000000000004 1.3480000000000001 31.950000000000003 1.5000000000000002 1.0000000180025095e-35 2.9729500000000004 13.250000000000002 1.0000000180025095e-35
decision_type=2 2 2 2 2 2 2 2 2 2 2 2 2 2 2 2 2 2 2
left_child=1 3 6 4 10 14 -2 -6 12 -10 17 13 -9 -5 -4 -3 -8 -1 -12
right_child=2 15 5 11 7 -7 16 8 9 -11 18 -13 -14 -15 -16 -17 -18 -19 -20
leaf_value=0.031810456397595603 -0.0024996926639300841 -0.0015606872545681938 -0.022818529950901983 -0.025485329579749139 0.0024156886770507948 -0.054032937212860933 -0.013908192593696684 0.024645894218549812 0.010156030290101727 -0.025977989346252308 0.033718247865053341 -0.0031860121845854275 0.012448972945549364 0.019784816765459901 -0.042860551935820224 -0.024910048611457833 -0.031953612622193359 -0.0011987017187692778 0.021314779164031947
leaf_weight=212.94869241211563 2779.5708775105886 542.74425275949761 1993.3034189748578 124.17770339315757 3492.7492109616287 835.25515768211335 2624.6588559206575 2161.1788400039077 688.60314678307623 422.26760256662965 1732.7544323410839 4799.1383554218337 5191.3730378360488 948.77974073821679 773.58246966381557 1424.1792998702731 842.07772499904968 668.90409789420664 2035.5837724949233
leaf_count=946 17256 13421 24250 1669 21118 24480 17201 7200 3732 3162 6899 43001 29720 6978 18009 76417 29735 4172 10190
internal_value=1.99258e-11 0.00794144 -0.0197119 0.0102523 0.0138584 -0.0343606 -0.0112642 0.0102334 0.0134597 -0.00357934 0.0231788 5.39178e-05 0.0160341 0.0145455 -0.028422 -0.0184671 -0.0182915 0.00677231 0.0270181
internal_weight=34293.8 24445.4 9848.45 22478.5 16606.4 3602.14 6246.31 11956.2 8463.42 1110.87 4650.19 5872.1 7352.55 1072.96 2766.89 1966.92 3466.74 881.853 3768.34
internal_count=359556 228625 130931 138787 87139 66739 64192 64932 43814 6894 22207 51648 36920 8647 42259 89838 46936 5118 17089
is_linear=0
shrinkage=0.05


Tree=31
num_leaves=20
num_cat=0
split_feature=4 9 4 4 7 7 3 4 7 3 4 3 3 4 6 4 4 4 4
split_gain=2075.56 552.859 465.866 229.806 180.484 169.919 168.897 125.756 118.12 99.8984 96.0307 93.7126 89.7472 82.8287 60.5024 60.4035 59.7533 59.0836 51.8952
threshold=37.750000000000007 -0.050494999999999991 39.750000000000007 34.550000000000004 1.0000000180025095e-35 1.0000000180025095e-35 3.9541500000000003 31.950000000000003 1.0000000180025095e-35 3.3759000000000006 13.550000000000002 2.3841500000000004 1.2088500000000002 41.350000000000001 16.500000000000004 36.95000000000001 38.750000000000007 33.350000000000001 38.750000000000007
decision_type=2 2 2 2 2 2 2 2 2 2 2 2 2 2 2 2 2 2 2
left_child=1 6 4 7 14 12 -1 10 -9 16 -3 15 -5 -4 18 -7 -6 -10 -2
right_child=2 3 13 5 9 11 -8 8 17 -11 -12 -13 -14 -15 -16 -17 -18 -19 -20
leaf_value=-0.00357113941176458 -0.00058125463525493472 0.015641525499977705 -0.036845097087210808 0.025142809269653673 -0.01278872416349415 0.0081567446704188806 -0.028547701840280094 0.034649098247605051 0.034093446599816592 -0.036577044938057815 -0.017028733258579534 -0.008744177667521804 0.010831251506548931 -0.062622239064392668 -0.063875413486973565 -0.0036622922930561763 -0.026375062547089587 0.014754008919909516 -0.013317058877156909
leaf_weight=3449.7793608864304 2224.3045672792941 604.92741923080757 1365.4498660329264 1371.5297841019928 2364.9392443699762 4805.5041016051546 842.07321345829405 1542.1162503752857 465.54042916139588 841.35080877691507 358.06837850203738 1419.4292542538606 5441.7128388350829 403.79787807981484 44.437065242091194 1394.8006156990305 1230.2727414784022 2603.7626021443866 1249.0022489093244
leaf_count=48428 13301 3650 28535 5746 17542 22813 52620 6487 2586 36098 3131 28684 30344 13983 739 6657 10981 17479 9752
internal_value=3.45959e-11 0.00781211 -0.0195225 0.0113052 -0.014361 0.00797493 -0.00847161 0.0199277 0.0233596 -0.0210675 0.00349382 0.0028449 0.0137122 -0.0427283 -0.00590275 0.00549797 -0.0174379 0.0176873 -0.00516105
internal_weight=34022.8 24299.2 9723.55 20007.4 7954.31 14433 4291.85 5574.42 4611.42 4436.56 962.996 7619.73 6813.24 1769.25 3517.74 6200.3 3595.21 3069.3 3473.31
internal_count=359556 228625 130931 127577 88413 94244 101048 33333 26552 64621 6781 58154 36090 42518 23792 29470 28523 20065 23053
is_linear=0
shrinkage=0.05


Tree=32
num_leaves=20
num_cat=0
split_feature=4 3 4 4 7 9 7 7 1 4 3 4 7 3 4 4 4 3 1
split_gain=2016.16 497.368 443.229 274.767 177.353 157.469 136.335 117.627 92.3385 82.422 74.4965 70.658 70.5623 67.7864 61.4964 111.693 64.6721 57.1174 47.8042
threshold=37.750000000000007 3.1843000000000004 39.850000000000001 35.250000000000007 1.5000000000000002 0.093805000000000013 1.0000000180025095e-35 1.0000000180025095e-35 3.5000000000000004 38.750000000000007 1.4230500000000001 41.350000000000001 1.5000000000000002 4.8215000000000012 31.950000000000003 34.050000000000004 13.550000000000002 3.9862000000000006 3.5000000000000004
decision_type=2 2 2 2 2 2 2 2 2 2 2 2 2 2 2 2 2 2 2
left_child=1 3 4 6 8 12 18 -3 9 -2 -7 -4 -5 -9 16 -16 -8 -6 -1
right_child=2 7 11 5 17 10 14 13 -10 -11 -12 -13 -14 -15 15 -17 -18 -19 -20
leaf_value=0.029989405557214174 -0.00087294170644665195 0.0028968546859012342 -0.037536636354094884 0.0049475242739941581 -0.023275716561380763 0.025262323248844549 0.0091271845633646865 -0.015472449709672624 -0.020367914190998117 -0.015031600123282116 0.009112873793404459 -0.062075329382423189 -0.0044925723480036981 -0.040403908742227143 0.023353539986464243 0.0083170631986014855 -0.029601032414808104 -0.044823534895622921 0.018258071414069165
leaf_weight=1839.91483061295 2639.4322280450724 800.86902370327152 1187.5982102043927 6104.0205244822428 1713.6489483024925 1119.2935913391411 283.01835379283875 1446.3040791118983 1624.84742362611 1683.4594449182041 1972.6238015145063 389.59521172498353 2929.5731865502894 335.97166775609367 1877.8149727135897 3607.9168478637002 174.11138819064945 374.80409137438983 1644.5689556607977
leaf_count=7135 17797 16700 25816 35008 19379 4240 1996 59182 17946 15268 8893 13983 23834 29131 10410 23223 1684 20742 7189
internal_value=-1.41e-11 0.00771267 -0.0193639 0.0101975 -0.0146077 0.00521963 0.0166001 -0.01302 -0.0102062 -0.00638673 0.0149591 -0.0435981 0.00188612 -0.0201722 0.0119959 0.0134642 -0.0056236 -0.0271428 0.0244526
internal_weight=33749.4 24136 9613.39 21552.9 8036.19 12125.5 9427.35 2583.14 5947.74 4322.89 3091.92 1577.19 9033.59 1782.28 5942.86 5485.73 457.13 2088.45 3484.48
internal_count=359556 228625 130931 123612 91132 71975 51637 105013 51011 33065 13133 39799 58842 88313 37313 33633 3680 40121 14324
is_linear=0
shrinkage=0.05


Tree=33
num_leaves=20
num_cat=0
split_feature=4 9 4 4 6 3 7 7 9 4 3 4 6 3 6 4 4 1 4
split_gain=1966.09 487.245 370.73 274.736 180.169 157.912 150.288 119.714 110.544 74.3761 74.3548 58.8918 65.45 57.9992 57.3796 93.6302 56.2377 55.4715 58.6016
threshold=37.95000000000001 -0.046894999999999992 40.050000000000004 35.45000000000001 16.500000000000004 4.159650000000001 1.5000000000000002 1.0000000180025095e-35 0.099995000000000014 38.750000000000007 2.2027500000000004 35.050000000000004 16.500000000000004 1.4928500000000002 14.500000000000002 36.95000000000001 36.750000000000007 3.5000000000000004 34.45000000000001
decision_type=2 2 2 2 2 2 2 2 2 2 2 2 2 2 2 2 2 2 2
left_child=1 5 6 7 8 11 9 17 14 -2 -9 -1 -13 -10 -5 -16 -6 18 -3
right_child=2 3 -4 4 16 -7 -8 10 13 -11 -12 12 -14 -15 15 -17 -18 -19 -20
leaf_value=0.0072597938272098376 -0.0068057548954236187 0.039060152695186381 -0.04568524404286587 -0.0018551016429005536 -0.01348776934772531 -0.029625903962816325 -0.028752767193894635 0.014583126925284443 0.023701405628576699 -0.018771531127582147 0.00062990370567318657 -0.0048967755396023714 -0.031213425145822815 0.0089129126624310114 0.014080895383411431 -0.0014541492035061478 -0.050804464277898614 0.016480042779103931 0.022111054059692579
leaf_weight=926.66972862952389 2893.73333531362 800.50023066531867 1284.3861472695135 3199.8232823843136 547.39054085221142 694.2168303426588 1848.7649434220511 4692.4954011775553 1116.2697727158666 2355.9493917878717 1198.662002205383 2756.0326223031152 258.41120497952215 1632.7820758470334 2178.6629873125348 1748.1671684563626 123.79608351457864 1825.9889630675316 1405.2273908900097
leaf_count=15538 22479 3170 34814 23808 4800 49298 37352 20120 4277 25322 22619 39267 4864 7759 14711 11735 1480 9405 6738
internal_value=6.37478e-12 0.00700071 -0.0209659 0.0103154 0.00469683 -0.0076372 -0.0164932 0.0162874 0.0064005 -0.0121757 0.0117441 -0.00376395 -0.00715275 0.0149179 0.00311499 0.00716492 -0.0203706 0.022926 0.0282622
internal_weight=33487.9 25105.1 8382.83 20469.8 10546.9 4635.33 7098.45 9922.87 9875.71 5249.68 5891.16 3941.11 3014.44 2749.05 7126.65 3926.83 671.187 4031.72 2205.73
internal_count=359556 239589 119967 130622 68570 108967 85153 62052 62290 47801 42739 59669 44131 12036 50254 26446 6280 19313 9908
is_linear=0
shrinkage=0.05


Tree=34
num_leaves=20
num_cat=0
split_feature=3 3 7 3 3 7 7 7 9 6 3 7 19 3 6 3 3 9 15
split_gain=1014.74 290.755 168.697 143.697 111.841 93.1172 69.7509 35.574 35.4268 25.9738 23.1988 22.242 21.7388 21.5226 19.5732 18.0754 17.5503 16.7396 18.515
threshold=3.4950000000000006 2.0082000000000004 1.0000000180025095e-35 4.7609000000000012 0.55920000000000003 1.0000000180025095e-35 1.0000000180025095e-35 1.5000000000000002 0.03845500000000001 13.500000000000002 1.0471500000000002 1.0000000180025095e-35 -0.017754999999999996 1.0816500000000002 11.500000000000002 2.6706500000000006 1.4468500000000002 -0.0052149999999999992 -0.02385
decision_type=2 2 2 2 2 2 2 2 2 2 2 2 2 2 2 2 2 2 2
left_child=1 4 14 6 -1 12 -2 9 10 -4 17 -5 -6 -14 -3 -9 -10 18 -7
right_child=3 2 7 11 5 8 -8 15 16 -11 -12 -13 13 -15 -16 -17 -18 -19 -20
leaf_value=0.025001122642621734 -0.0070326410457763021 -0.0031959700631194218 -0.011486738174819428 -0.025803131759533433 0.015299944834093131 0.01263481639314221 -0.025405885012835451 -0.0095749396252015825 0.0087660782906762418 -0.0018150848307484189 -0.0014711713570140653 -0.046021339657535791 0.014065061262777201 0.0070435346617101829 0.0051803697915437253 -0.017326596008815694 0.0027048570134528102 0.011411989057980279 -0.0045355368951447107
leaf_weight=787.60677606984973 756.34665829199366 863.90605512505863 1097.0048121747095 164.32998927356675 1529.9944666544907 224.26189543027431 1629.3288236730732 1678.1520631809253 2608.9315886758268 1890.4693028493784 4639.6131002325565 789.8248927911045 1413.8387542515993 4785.0567325791344 3618.9494041693397 1362.7112282179296 2202.4894573790953 690.28398035559803 523.48211491014808
leaf_count=3617 17988 7494 14393 8105 5858 719 71731 19100 8830 23263 24019 58001 5806 18653 26427 30034 11539 2203 1776
internal_value=2.09303e-11 0.00291819 -0.00377933 -0.0261399 0.00654596 0.00576524 -0.0195809 -0.00924164 0.00278615 -0.00536653 0.00024863 -0.0425392 0.0099624 0.008645 0.00356614 -0.0130487 0.00599148 0.00579735 0.000614161
internal_weight=33256.6 29916.8 10511.2 3339.83 19405.6 18618 2385.68 6028.34 10889.1 2987.47 6077.64 954.155 7728.89 6198.9 4482.86 3040.86 4811.42 1438.03 747.744
internal_count=359556 203731 120711 155825 83020 79403 89719 86790 49086 37656 28717 66106 30317 24459 33921 49134 20369 4698 2495
is_linear=0
shrinkage=0.05


Tree=35
num_leaves=20
num_cat=0
split_feature=4 4 9 4 7 4 4 6 4 6 7 7 4 7 4 2 2 6 4
split_gain=1907.9 449.35 363.234 229.117 114.934 114.583 110.936 101.867 122.191 121.774 108.879 94.4165 85.7198 66.3581 64.3064 64.2319 60.7306 55.4663 49.6874
threshold=37.650000000000013 39.250000000000007 -0.050494999999999991 34.650000000000013 1.0000000180025095e-35 40.750000000000007 31.950000000000003 16.500000000000004 35.750000000000007 13.500000000000002 1.5000000000000002 1.0000000180025095e-35 13.750000000000002 1.0000000180025095e-35 33.350000000000001 7.5000000000000009 7.5000000000000009 17.500000000000004 36.550000000000004
decision_type=2 2 2 2 2 2 2 2 2 2 2 2 2 2 2 2 2 2 2
left_child=2 4 15 6 17 13 12 9 -9 -5 -11 -8 -4 -3 -13 -1 -6 -2 -12
right_child=1 5 3 7 16 -7 11 8 -10 10 18 14 -14 -15 -16 -17 -18 -19 -20
leaf_value=-0.0010984805960448398 -0.0040860619954003231 -0.019783687915764642 0.0098882160277116767 0.0021206353357336484 -0.014414304891850076 -0.054643935051441286 0.031347166311515011 0.0050260013828047206 -0.026413822136853355 0.015852329318126451 0.0078363765446548602 0.034252132201961979 -0.030653639531686306 -0.037699952924842503 0.01404684924512177 -0.01436325292567929 -0.029977018355321697 -0.071019408458864508 -0.01028022570063316
leaf_weight=2499.19763632596 3165.5743371034041 896.24306656350382 779.27297561941668 4526.8455501443241 3169.6738360421732 614.2511674198322 1720.2107235984877 891.6783791417256 472.96559131937101 5643.8129427102394 1029.1779706361704 457.91643163841218 156.57822453975677 1220.7892347135348 2811.9682254029904 1437.5772172223078 781.40857630292885 31.257281702477485 598.60196319362149
leaf_count=25291 20227 10528 5199 31668 24163 21308 7421 6651 4641 30877 9313 2586 1582 27059 19702 72940 32645 549 5206
internal_value=7.96795e-12 -0.0183808 0.00788625 0.0107382 -0.0117891 -0.0356315 0.0189022 0.00706274 -0.00587058 0.00855864 0.0125666 0.0218648 0.00310512 -0.0301151 0.0168764 -0.00594233 -0.0174922 -0.00474051 0.00117415
internal_weight=32905 9879.2 23025.8 19089 7147.91 2731.28 5925.95 13163.1 1364.64 11798.4 7271.59 4990.1 935.851 2117.03 3269.88 3936.77 3951.08 3196.83 1627.78
internal_count=359556 136479 223077 124846 77584 58895 36490 88356 11292 77064 45396 29709 6781 37587 22288 98231 56808 20776 14519
is_linear=0
shrinkage=0.05


Tree=36
num_leaves=20
num_cat=0
split_feature=4 4 4 6 7 6 7 4 3 7 4 3 4 4 4 3 7 3 6
split_gain=1859.58 389.873 378.57 230.431 176.293 158.074 153.704 132.112 91.4955 88.5665 82.5375 79.1606 78.2059 140.172 74.9551 71.1779 60.356 54.313 51.9362
threshold=37.750000000000007 39.050000000000004 35.350000000000001 16.500000000000004 1.5000000000000002 14.500000000000002 1.5000000000000002 40.550000000000004 3.4610500000000006 1.0000000180025095e-35 36.45000000000001 2.0605000000000007 31.950000000000003 34.150000000000013 13.550000000000002 2.1575500000000005 1.5000000000000002 4.2815000000000003 13.500000000000002
decision_type=2 2 2 2 2 2 2 2 2 2 2 2 2 2 2 2 2 2 2
left_child=2 9 6 4 5 15 12 16 -6 -2 -5 -8 14 -14 -1 -4 -3 -11 -15
right_child=1 7 3 10 8 -7 11 -9 -10 17 -12 -13 13 18 -16 -17 -18 -19 -20
leaf_value=0.015297960918983148 -0.0045683914214941918 -0.022777935054526171 0.0046663124300969213 -0.012452669739597161 -0.0028713005128880149 0.013821071435098337 0.011006049386680105 -0.051483060656460668 -0.026859409420963688 -0.015049338798133992 -0.044547487477316905 -0.006024697124434859 0.03119079142164255 0.0098861113011660499 -0.014532476354566068 -0.0095393127498308444 -0.03996598197944503 -0.039746222259606598 0.020350767971215558
leaf_weight=578.23295178241096 2660.0773204376455 1883.3325516544282 2877.6863113315776 728.1191983029712 2762.6274593216367 4531.4131753314286 1853.926547549665 733.47785170970019 464.31957537319977 2989.9585606632754 276.34646160737611 1079.664662057301 1991.3362071636366 2254.3535812647315 331.19916639057919 1271.3628248281311 700.80289336014539 240.52577936637681 2501.0861756294034
leaf_count=3643 17256 24250 12997 10541 25023 31096 8742 24480 29542 30946 5724 36336 10241 15422 3078 20404 18009 15990 15836
internal_value=3.76429e-12 -0.0190459 0.00746234 0.00171532 0.00365533 0.00736473 0.0144695 -0.032755 -0.00632291 -0.0113248 -0.0212825 0.00473814 0.0181983 0.0200536 0.00443424 0.000313386 -0.0274392 -0.0168881 0.0153899
internal_weight=32709.8 9208.17 23501.7 12911.9 11907.4 8680.46 10589.8 3317.61 3226.95 5890.56 1004.47 2933.59 7656.21 6746.78 909.432 4149.05 2584.14 3230.48 4755.44
internal_count=359556 130931 228625 135327 119062 64497 93298 66739 54565 64192 16265 45078 48220 41499 6721 33401 42259 46936 31258
is_linear=0
shrinkage=0.05


Tree=37
num_leaves=20
num_cat=0
split_feature=4 4 4 6 7 7 6 4 1 3 7 3 4 4 4 4 4 3 3
split_gain=1829.87 504.581 256.885 238.729 180.8 147.543 123.599 121.112 105.867 98.3437 90.8824 80.0278 71.3379 70.5691 141.077 73.298 62.9939 55.2069 50.4853
threshold=38.250000000000007 35.45000000000001 40.050000000000004 16.500000000000004 1.5000000000000002 1.5000000000000002 14.500000000000002 37.150000000000013 3.5000000000000004 3.4610500000000006 1.0000000180025095e-35 2.0346500000000005 36.750000000000007 31.950000000000003 34.350000000000001 13.550000000000002 36.850000000000001 2.1575500000000005 4.5721000000000016
decision_type=2 2 2 2 2 2 2 2 2 2 2 2 2 2 2 2 2 2 2
left_child=1 5 10 4 6 13 17 -8 -9 16 -2 -7 -5 15 -15 -1 -6 -3 -12
right_child=2 3 -4 12 9 11 7 8 -10 -11 18 -13 -14 14 -16 -17 -18 -19 -20
leaf_value=0.015179618134468054 -0.011707077205032907 0.0026423819638491915 -0.044533641023492256 -0.017237946532594108 0.0026767450763592834 0.010965294632247822 0.016920024136652081 0.0095429110823224417 -0.011787932278033993 -0.027294623454779694 -0.022897226747699121 -0.0057255883713444485 -0.050648771359371826 0.028428309149775451 0.013859861954131237 -0.014337659066789056 -0.011446666030936921 -0.0091095311216844322 -0.046939195494789102
leaf_weight=578.51254984061234 2387.658545718994 3247.7075987160206 1203.0521816139808 725.48668538173661 1559.3110534911975 1902.0576300593093 2974.0445933642332 1662.7804047549143 894.65007349080406 555.07411478087306 2698.4273618231528 1153.8061028675875 204.88669771701097 2635.1154211530229 4498.8034467691323 330.45846309675835 1599.2465712232515 1443.5354068063898 237.5810005008243
leaf_count=3643 18716 14635 34814 11277 14326 8907 20373 10625 7826 35452 34659 38897 4698 14015 30534 3078 14405 22909 15767
internal_value=1.75375e-12 0.00594894 -0.0236669 -7.34198e-05 0.00156366 0.0140159 0.00499616 0.0100593 0.00208087 -0.00788519 -0.0189514 0.0046633 -0.0245957 0.0175693 0.0192411 0.00444855 -0.00447425 -0.000973782 -0.0248427
internal_weight=32492.2 25965.5 6526.72 14866.7 13936.3 11098.8 10222.7 5531.48 2557.43 3713.63 5323.67 3055.86 930.373 8042.89 7133.92 908.971 3158.56 4691.24 2936.01
internal_count=359556 255600 103956 156526 140551 99074 76368 38824 18451 64183 69142 47804 15975 51270 44549 6721 28731 37544 50426
is_linear=0
shrinkage=0.05


Tree=38
num_leaves=20
num_cat=0
split_feature=3 9 3 3 7 3 7 3 3 7 7 13 11 12 10 9 9 13 9
split_gain=772.275 207.664 134.067 113.232 78.5801 62.1817 59.1172 40.2478 38.9037 28.3278 21.5594 17.7731 21.5356 17.1228 15.9907 15.2644 14.5279 14.2022 14.0179
threshold=3.4950000000000006 -0.0070649999999999992 4.7609000000000012 1.0471500000000002 1.0000000180025095e-35 2.0346500000000005 1.0000000180025095e-35 1.7664500000000001 0.43775000000000003 1.5000000000000002 1.0000000180025095e-35 0.45250000000000007 0.0028500000000000005 0.095750000000000016 0.041750000000000002 0.048455000000000005 0.099995000000000014 -0.11574999999999998 -0.077874999999999986
decision_type=2 2 2 2 2 2 2 2 2 2 2 2 2 2 2 2 2 2 2
left_child=1 5 6 8 13 -1 18 11 -3 17 -4 -6 15 -5 16 -13 -15 -7 -2
right_child=2 3 10 4 7 9 -8 -9 -10 -11 -12 12 -14 14 -16 -17 -18 -19 -20
leaf_value=4.7543588321595761e-05 -0.017827354227665414 0.030059571912323498 -0.02373715192254984 0.0097106390310790127 0.0044019395959041833 0.0028009360561620893 -0.02299197099874873 -0.003699453036361751 0.011563526920428798 -0.012919808298561292 -0.044431140069933164 -0.0049182862516017811 -0.013616766830140551 0.0027216988111813992 -0.00043666323609638333 0.01691510003689425 0.008370781436489531 -0.0070106921157081451 -0.0017922250116622915
leaf_weight=3932.8243764890358 180.58080349885859 311.11502059036866 153.75203192839399 3087.7428853507154 4018.3006531544961 498.34077439061366 1516.7070995855611 3944.2932015648112 3298.223362063989 2045.4484990991186 693.80396348261274 184.05498483590782 324.80302467755973 1783.57436220604 1062.4080660815816 141.67190959490836 3144.9440549137071 1419.054967539385 555.7536939738784
leaf_count=19677 5525 1566 8105 15285 17754 7810 71731 40979 12545 36872 58001 675 1181 10686 5450 463 15104 17684 12463
internal_value=-7.02206e-12 0.00251958 -0.0237256 0.00508687 0.0034403 -0.00440654 -0.0173487 1.91547e-05 0.0131578 -0.00882688 -0.0406771 0.00316069 -0.00450649 0.00668601 0.0051271 0.00457794 0.00632644 -0.0044606 -0.00572473
internal_weight=32297.4 29196.8 3100.6 21301.1 17691.8 7895.67 2253.04 8613.12 3609.34 3962.84 847.556 4668.83 650.53 9078.67 5990.93 325.727 4928.52 1917.4 736.334
internal_count=359556 203731 155825 121688 107577 82043 89719 61052 14111 62366 66106 20073 2319 46525 31240 1138 25790 25494 17988
is_linear=0
shrinkage=0.05


Tree=39
num_leaves=20
num_cat=0
split_feature=4 4 4 3 4 4 4 7 4 7 7 6 7 6 4 6 7 7 6
split_gain=1794.27 415.535 313.795 200.13 145.258 118.046 112.191 107.539 105.364 100.772 92.6084 75.0176 59.8385 58.2453 66.9535 92.2985 53.2865 50.3182 45.5059
threshold=37.550000000000004 39.050000000000004 34.650000000000013 3.1843000000000004 31.950000000000003 41.050000000000004 13.350000000000003 1.0000000180025095e-35 33.45000000000001 1.5000000000000002 1.5000000000000002 16.500000000000004 1.5000000000000002 16.500000000000004 36.650000000000013 14.500000000000002 1.5000000000000002 1.5000000000000002 16.500000000000004
decision_type=2 2 2 2 2 2 2 2 2 2 2 2 2 2 2 2 2 2 2
left_child=2 10 4 7 6 16 -1 18 -6 -10 11 -2 -5 14 15 -9 -3 -8 -4
right_child=1 5 3 12 8 -7 17 13 9 -11 -12 -13 -14 -15 -16 -17 -18 -19 -20
leaf_value=0.021699762947275186 -0.0064855296049944611 -0.024332204408727975 0.012756507233941471 -0.0040734050033423416 0.037000014150870293 -0.056606865874884241 -0.0066148196390855051 0.00020463226235223309 0.0223399701384491 0.0062609087597915343 -0.020591964136015911 -0.05883184760306838 -0.023070172430639437 -0.010020057678307425 -0.0030932023122548866 0.014168317107989881 -0.039971670846933982 -0.045472810532019278 -0.0022774922472620241
leaf_weight=381.10474572400562 5092.3891366058961 2023.2298964785878 5241.4202241199091 989.02598506992217 819.39418231509626 433.33859705692157 562.77328924322501 2344.0875434619375 3277.3721164271701 1386.7736896822462 1717.7149355774745 69.375712002860382 713.65119816735387 849.44715869287029 2334.1465283306316 2389.9903827505186 745.26833243924193 97.787528124870732 556.80796981044114
leaf_count=2640 40570 28582 24768 31766 5883 17228 4809 16964 18924 20082 33556 1314 46066 6646 16135 16538 20929 3210 2946
internal_value=1.47988e-11 -0.0174609 0.0080218 0.00413214 0.0172128 -0.0323406 9.65426e-05 0.00613918 0.0204642 0.0175592 -0.0105356 -0.00718908 -0.0120356 0.00235048 0.00383715 0.00725417 -0.0285423 -0.0123672 0.0113128
internal_weight=32025.1 10081.3 21943.8 15418.6 6525.21 3201.84 1041.67 13715.9 5483.54 4664.15 6879.48 5161.76 1702.68 7917.67 7068.22 4734.08 2768.5 660.561 5798.23
internal_count=359556 142179 217377 161829 55548 66739 10659 83997 44889 39006 75440 41884 77832 56283 49637 33502 49511 8019 27714
is_linear=0
shrinkage=0.05


Tree=40
num_leaves=20
num_cat=0
split_feature=4 4 4 6 3 4 4 4 4 4 1 9 9 6 6 4 12 4 6
split_gain=1749.04 371.637 345.475 227.469 106.115 87.643 194.381 108.047 83.2385 82.4819 71.865 61.703 58.5944 55.606 51.9574 51.362 47.3716 45.159 43.3694
threshold=37.650000000000013 39.45000000000001 35.45000000000001 16.500000000000004 2.2027500000000004 31.950000000000003 34.050000000000004 13.550000000000002 41.350000000000001 38.550000000000004 3.5000000000000004 0.093805000000000013 -0.089584999999999984 14.500000000000002 17.500000000000004 36.750000000000007 0.019550000000000001 33.150000000000013 13.500000000000002
decision_type=2 2 2 2 2 2 2 2 2 2 2 2 2 2 2 2 2 2 2
left_child=2 9 5 4 11 7 17 -1 16 10 14 -4 -8 -6 -2 -5 -3 -7 -13
right_child=1 8 3 15 13 6 12 -9 -10 -11 -12 18 -14 -15 -16 -17 -18 -19 -20
leaf_value=0.012791498471944929 -0.0033645554141409893 -0.041407912790120023 0.0041500450650713144 -0.017528248455531952 -0.011151373481867555 0.043310464054096734 -0.0058643064805837869 -0.020471472247396191 -0.060015554675007611 -0.019379323862052013 -0.017632848661835673 0.0041009569566964636 0.012384151966706437 0.0016672568626354832 -0.063051791252578746 -0.049717110705171416 -0.024972333659793584 0.024429658974331268 0.019711236421056093
leaf_weight=641.23113692249171 2968.481367632281 799.97476174891926 5130.804405930452 715.28793705184944 1431.4641545345075 368.43247306370176 470.35881455766503 394.23159223445691 322.62028992502019 2870.9116401093779 1455.687422935036 667.81214353069663 6790.6952582884114 2068.5744682283839 36.914048824692145 149.89956481521949 970.03328136645723 2255.3114403473446 1333.2218176610768
leaf_count=5139 28379 22202 24167 11277 31284 2608 18511 5520 13983 36916 18446 3050 49990 45535 996 3555 15557 17306 5135
internal_value=-9.25561e-13 -0.018073 0.00759818 0.00154882 0.00355509 0.0139671 0.0154168 0.000127292 -0.036658 -0.0127686 -0.00851431 0.00705445 0.011202 -0.00357537 -0.00409767 -0.0231052 -0.0324006 0.0270809 0.0145016
internal_weight=31841.9 9424.62 22417.3 11497.1 10631.9 10920.3 9884.8 1035.46 2092.63 7331.99 4461.08 7131.84 7261.05 3500.04 3005.4 865.188 1770.01 2623.74 2001.03
internal_count=359556 136479 223077 124003 109171 99074 88415 10659 51742 84737 47821 32352 68501 76819 29375 14832 37759 19914 8185
is_linear=0
shrinkage=0.05


Tree=41
num_leaves=20
num_cat=0
split_feature=3 7 3 3 3 3 7 7 3 7 6 7 0 18 3 6 12 0 5
split_gain=636.875 188.879 100.911 91.8583 78.8947 55.3969 46.5762 42.9169 25.1628 21.9435 17.6945 17.6282 17.189 14.9082 13.1204 12.7451 12.5391 12.2693 12.3888
threshold=3.7784500000000003 1.5000000000000002 2.1341500000000004 4.9384500000000005 2.0082000000000004 0.55920000000000003 1.0000000180025095e-35 1.0000000180025095e-35 1.5581000000000003 1.0000000180025095e-35 13.500000000000002 1.0000000180025095e-35 3.5000000000000004 0.35029500000000008 2.6706500000000006 10.500000000000002 0.034150000000000007 6.5000000000000009 51.250000000000007
decision_type=2 2 2 2 2 2 2 2 2 2 2 2 2 2 2 2 2 2 2
left_child=1 4 8 6 5 -1 -2 13 12 -7 -9 -5 -3 15 -4 -6 17 18 -11
right_child=3 2 14 11 7 9 -8 10 -10 16 -12 -13 -14 -15 -16 -17 -18 -19 -20
leaf_value=0.021152605741885336 -0.006374026184556199 -0.0033877958730159936 -0.008658373229372969 -0.023734765129304003 -0.0028588180279337087 0.0076511675950563162 -0.024938527312083861 -0.0094165917208623804 -0.0046894473580355242 -0.021571170414818357 -0.0015295527685018811 -0.045603896084475661 0.0054055694101042698 -0.0018539681011940806 -0.015597461922555398 0.0060157332640279008 0.0012259679699282121 0.0009645210351402596 0.0080245322822568785
leaf_weight=614.37403338728473 484.43094451900106 795.75073278555647 1222.2226128802868 111.74673482263461 466.7211286945967 7419.9165559532121 1116.664316560491 1114.3839452480897 1993.5941010660026 35.887474972754717 1965.2001423481852 525.40327906399034 1842.6757515820209 1093.2170559519436 1538.9558941118885 3037.8712187444326 2903.2708526265342 979.00414893357083 2406.1505370847881
leaf_count=3177 14671 3297 15546 6413 4778 30317 63773 16657 14557 186 27146 49010 7330 8604 40836 25548 12606 4472 10632
internal_value=2.75267e-11 0.00195549 -0.00496 -0.0257114 0.00427567 0.00646333 -0.0193216 0.000184227 -0.000449908 0.00580671 -0.00438357 -0.0417684 0.00275349 0.00324371 -0.0125259 0.00483387 0.00364272 0.00569369 0.0075896
internal_weight=31667.4 29429.2 7393.2 2238.25 22036 14358.6 1601.1 7677.39 4632.02 13744.2 3079.58 637.15 2638.43 4597.81 2761.18 3504.59 6324.31 3421.04 2442.04
internal_count=359556 225689 81566 133867 144123 61390 78444 82733 25184 58213 43803 55423 10627 38930 56382 30326 27896 15290 10818
is_linear=0
shrinkage=0.05


Tree=42
num_leaves=20
num_cat=0
split_feature=4 4 4 6 7 6 4 4 4 7 7 4 4 4 3 1 6 7 4
split_gain=1687.73 378.541 313.172 173.372 109.108 139.209 104.79 139.762 107.156 94.7172 84.2791 80.7177 76.8592 66.7457 61.6474 59.2236 52.7756 49.1691 46.2991
